
#include "network_evaluate.h"



float linear(float num) {
	return num;
}



float sigmoid(float num) {
	return 1 / (1 + exp(-num));
}



float relu(float num) {
	if (num > 0) {
		return num;
	} else {
		return 0;
	}
}

static const int structure[3][2] = {{36, 64},{64, 64},{64, 4}};
static float output_0[64];
static float output_1[64];
static float output_2[4];
static const float layer_0_weight[36][64] = {{0.22051613,0.0021388987,0.4508013,0.3680311,0.21430537,0.18278247,-0.26415843,0.3145127,0.10336952,-0.39100486,-0.11277112,0.2388054,0.6038473,-0.52794826,0.23191528,-0.28258032,-0.11794892,0.20866325,0.056033485,0.11459509,-0.14755382,-0.26784313,0.45131,0.08325912,-0.17480338,0.15990788,-0.1824403,-0.038003188,0.06529766,0.021182155,0.46424386,0.3320976,-0.009332646,0.18010496,-0.14201707,0.11192235,0.37236932,0.23531583,0.29840246,0.14674063,-0.34326476,0.24019441,-0.093148984,-0.16094765,0.09919536,-0.3953104,0.436848,-0.02343073,-0.5304181,0.18813437,0.036764216,0.19233662,0.07955567,-0.23899558,-0.57655346,-0.21695392,0.52176994,-0.2817027,-0.54364467,0.40760005,0.10333829,-0.19175066,-0.1568565,-0.09880615},{0.3811277,-0.17175475,-0.08004369,0.110340156,-0.6072763,0.3930448,0.25335118,0.09177925,-0.16542058,0.089141764,0.06683719,-0.16034117,-0.054747995,-0.060424235,-0.16543391,0.4897526,0.37899622,0.18086748,-0.03953296,0.081407875,0.33099258,-0.08277824,-0.5691228,-0.047554977,0.402422,0.16672458,0.0042394297,0.20094597,0.35507077,0.08122643,-0.015782574,-0.51881427,-0.25689524,0.0008073557,-0.40666956,-0.39787096,-0.17421448,0.038637247,-0.22970025,0.06289422,0.24050663,0.028892124,-0.12709315,0.05788871,0.012355498,0.29645318,0.18795758,-0.2693265,0.35846418,0.21215026,0.21342161,-0.05916882,-0.45656726,-0.13390811,0.19483298,0.089919515,-0.21921988,-0.13262017,-0.22790627,-0.40067115,0.15232554,-0.15379702,0.07434297,-0.2521822},{-0.10143599,0.34560028,0.23218767,0.1351566,-0.19897105,0.4106157,-0.08708367,-0.0644858,0.06197952,0.17007133,0.03967806,-0.10742851,0.38649952,-0.1545078,-0.054752868,0.5397135,-0.04436258,0.07355405,0.1821448,-0.24246846,-0.08931418,-0.29643193,0.064139105,0.30367738,-0.012009926,-0.24828666,-0.18510993,-0.07915728,-0.10642972,0.005375141,0.0060429676,0.37438038,-0.28297958,-0.51125157,-0.17863761,0.1195709,-0.13761175,-0.30921733,-0.1418577,-0.10624875,0.07762677,-0.6770349,0.1418702,0.39192015,0.25496098,-0.06795774,-0.38849714,0.0013576889,-0.06563455,-0.57999516,-0.18941253,0.11011118,0.4075017,-0.23681201,0.03568686,-0.077602506,-0.007694986,-0.0372421,-0.012861003,0.009875149,-0.2288557,-0.05524405,0.051437657,-0.18080406},{-0.08283141,-0.035321422,0.079214245,0.4495423,0.55216277,-0.07663371,-0.22334665,0.20502934,0.237343,-0.27145073,0.050012298,-0.2753061,0.47550017,-0.45125034,0.023188002,-0.27263507,-0.037451945,0.112879306,-0.19467263,-0.3764201,-0.27616987,-0.41976228,-0.012347946,-0.1595818,-0.4445479,0.4452568,0.24308641,0.2964045,-0.15500607,0.23317471,0.4588477,0.37269828,0.13407399,0.10093171,-0.165699,0.04764463,-0.40613565,-0.17305836,-0.23785175,0.22232842,-0.08459643,0.1426051,0.0876086,0.23762219,-0.2786356,-0.43042296,0.509608,0.20547418,-0.0402253,0.5507414,0.48065192,-0.12097461,0.36637905,-0.008290106,-0.012901655,-0.31523627,0.42872363,-0.44830906,-0.74591947,0.5456504,-0.15534407,0.13829386,-0.0107983975,-0.3717017},{0.004599376,0.26289478,0.08282089,0.09300718,-0.1422522,0.31732824,0.08755375,0.3231148,-0.48928276,-0.15224035,-0.26238453,-0.16138436,-0.49128082,0.28383434,-0.021172848,0.11964296,0.22662404,0.09556475,0.12750314,0.05122699,0.49704257,-0.53700066,-0.6146568,0.12862389,0.06335281,-0.21259673,-0.16293103,0.18636832,-0.045727216,-0.0018084832,-0.054466616,-0.567013,-0.036528073,-0.22503957,0.116869465,-0.15727721,-0.62166375,0.0114362845,-0.22844124,0.27052233,0.37897483,0.021260202,0.24142997,0.082229204,0.25698352,0.37938598,0.043997966,-0.09502783,0.054780234,0.47480643,0.3677474,0.14214194,-0.50523347,-0.17468515,0.08304169,0.111090876,-0.012530963,-0.07155862,-0.0062371376,-0.13799377,-0.09098154,-0.16848937,0.20423071,-0.40871027},{0.2698823,0.19042216,0.38713872,-0.02013791,-0.42799115,0.65068233,-0.057202317,0.20175384,-0.262243,0.3502172,0.29870662,-0.14788604,0.5508152,-0.073293924,-0.35911456,0.49248558,0.17254668,-0.062563986,-0.026648734,-0.23110126,0.056238048,-0.28540292,0.25516734,-0.19206165,-0.020014973,0.17132805,0.30659044,-0.026999662,-0.19931148,-0.5008606,-0.43193433,0.26995918,0.2333054,0.0968813,-0.09935578,-0.25840625,0.42779824,-0.06030881,0.1553762,-0.09167293,0.37609947,-0.100554705,0.29991704,0.26852834,0.12708794,-0.02789278,-0.39562356,-0.054732036,-0.14194271,-0.45355418,0.20099026,-0.35766023,0.35306495,0.20616199,-0.1575007,-0.35536194,0.24667925,-0.11342017,-0.19497271,-0.28996783,-0.08357285,0.17317791,-0.06636198,-0.0195286},{0.38844395,-0.07398969,0.09966499,-0.21970676,-0.07324217,0.17105952,-0.20694456,0.40137887,-0.024443775,-0.011341742,-0.17366815,-0.16814807,0.07848616,-0.23782802,0.016584732,-0.21421498,0.07047491,0.4253474,0.24770243,-0.17874336,-0.2579369,0.038760744,-0.2483229,-0.21125132,0.20407996,-0.060870662,0.38786528,0.44546586,0.1392409,0.29860014,-0.1602517,0.21597691,-0.05736428,-0.17284483,0.17004217,0.19448479,0.2604163,-0.11989446,-0.12428074,-0.236213,0.12300485,-0.023649674,0.07298193,0.22427347,-0.0014600746,0.37247548,0.10758623,-0.34400618,-0.40828237,-0.29159787,0.22332388,-0.40005153,0.17950235,0.32484528,-0.1953553,-0.16707246,0.36990675,0.25904906,0.27087632,0.16668308,-0.22095725,0.6407976,0.04354742,0.18606076},{0.23534414,0.025838496,0.13736184,0.2745919,0.26746532,0.28078693,0.13314268,-0.048634317,-0.17109095,0.20329873,0.21978164,0.39500496,0.119737975,0.11946279,-0.37161928,-0.22251129,0.074134275,-0.090242885,-0.2746758,0.1029752,-0.14488469,0.02215793,-0.23944789,-0.13301662,0.35708126,-0.21045415,-0.052975558,-0.28179768,0.13933341,-0.018228844,0.11593959,0.18611915,-0.5612935,0.10793239,0.08002735,-0.24788944,-0.07465011,0.17965977,-0.21163149,0.08829211,0.0016448831,0.38286638,-0.012640732,-0.059773922,-0.19962537,-0.071720794,0.20674497,0.09863497,-0.15850335,0.27931508,0.039709754,0.012419983,0.11756984,-0.09559128,-0.18907598,-0.16105846,0.27755296,-0.09890291,0.023930412,0.039129797,0.1450025,0.39754647,0.20359385,-0.038310617},{0.23700124,0.37073234,-0.21116652,0.18964021,-0.25676286,-0.21373874,0.12876187,-0.15545323,0.14234594,-0.17255923,0.14956467,-0.3076965,0.50813645,0.15762989,-0.2878357,-0.09290487,-0.10773805,-0.074757084,0.046392396,0.1980771,0.2592182,-0.08370549,0.1267214,0.03866576,0.0938049,0.15672445,-0.304294,0.2450461,-0.27201933,0.19445731,0.19767326,-0.22096355,0.44049183,0.03051457,-0.26578385,-0.19638997,0.59138185,0.18728212,0.045520846,0.15977843,-0.021237345,-0.37850118,0.33475366,0.23632583,-0.12873982,0.23218182,-0.069108024,0.23159786,-0.11728727,0.362124,0.04895379,0.07509136,-0.13017826,-0.15793017,0.25967902,-0.07350437,0.0113091655,-0.3652463,-0.3744493,-0.028010817,0.18569718,-0.14451344,0.042276848,-0.00028001604},{0.2066019,0.21476209,0.24890497,0.12724288,0.09753465,-0.07000065,-0.07349726,0.2839153,0.10963623,-0.20529582,-0.19794226,0.13228607,-0.05400672,0.04249171,0.27970216,-0.049807325,0.070299976,0.076366514,0.2867932,-0.0018512399,-0.072075434,-0.2035492,0.079437,0.22928242,-0.18324868,0.22358704,-0.016696732,0.13905519,0.12505016,0.35039315,0.05894912,0.010664651,0.1536396,-0.32636806,0.054105636,0.07742762,0.34562546,-0.1099811,-0.0388325,0.21371624,0.17839766,-0.1623656,0.16216463,0.29673085,-0.28704804,0.2914501,0.19851619,-0.19066013,-0.3983632,-0.18239166,0.078360796,-0.07742923,0.24343404,0.2020707,-0.3385575,-0.17245027,0.14211895,0.13347645,0.24661742,0.14319819,0.033258542,0.56643987,-0.08220706,-0.115822166},{0.06081989,-0.03320794,-0.034557417,0.27331436,0.21062931,0.17983796,0.19812103,-0.2507297,-0.11958753,-0.0997555,0.23210067,0.2735781,0.014856459,0.15383127,-0.1545966,-0.020226127,-0.10796458,-0.14578557,0.23353927,-0.08018059,0.1676247,0.17920206,-0.30588776,0.09036851,0.17162558,0.18334378,-0.069237255,-0.13061355,0.04165665,0.12512353,0.21124506,0.025553014,-0.4059365,0.2065427,-0.24381837,-0.10285856,-0.17483625,0.23463878,0.24132583,0.058509327,0.002857866,0.4159784,-0.17418598,-0.16955242,0.11106734,-0.0827268,0.39826006,0.12719937,0.15677705,0.31390908,0.2511567,-0.1146828,0.04464982,-0.2803411,-0.27546623,0.026043504,-0.14761302,0.0020961973,0.066155285,-0.13881944,0.18100496,0.35799482,0.15784812,-0.23428938},{0.008563178,-0.026417198,0.0065016733,-0.16901557,-0.11889147,-0.18542317,-0.23108542,-0.12093519,-0.040299233,0.21064174,0.12640995,-0.15629108,0.3582132,0.33850238,-0.030989528,0.27680412,0.2488064,0.2007753,0.05034795,0.41487262,0.12941954,-0.36544713,-0.14993973,0.15021934,-0.09433392,0.27836162,-0.38208547,0.07587754,0.120460436,0.2744595,0.01421903,0.18528995,0.25769797,0.15630554,-0.35651243,-0.082882956,0.15501001,0.15585122,0.09759641,0.124064006,-0.095844656,-0.31803858,0.42206138,-0.28369883,-0.16342095,0.16239367,-0.053133037,-0.030272897,0.15897456,-0.05962864,0.06284463,0.08928548,0.032004006,0.08043131,-0.09117332,0.021696243,-0.0034166132,-0.45383543,-0.08341936,-0.27603757,0.051943697,0.11181948,-0.021627069,-0.05981839},{-0.4202133,0.32251504,-0.7193916,-0.19315563,-0.21805693,-0.20496431,-0.5917671,-0.19289377,-1.040986,0.1166069,-0.43431827,-0.31587353,0.06417981,-0.0929081,-0.19790566,-0.1542193,0.49945155,-0.12321437,-0.16116257,-0.87465376,0.95027137,0.4579637,0.55703115,0.49908298,-0.022697952,0.095414504,-0.211943,0.049911257,0.42663437,0.76115954,0.42712274,0.19694555,0.23817776,-0.015141305,-0.35153234,-0.2596702,-0.540881,-0.16816497,-0.06320335,-0.2527082,0.34361315,-0.27613452,-0.26135132,0.4686998,-0.22103651,-0.30598864,0.098614156,-0.2803381,0.218211,0.24622524,0.10557093,0.7824362,0.22403559,0.27317888,0.03544825,0.15499705,-0.23881827,0.39965287,-0.17826013,0.25654605,0.5014952,0.2675539,-0.30177322,0.8601165},{0.2726755,0.0077809826,-0.33933544,0.061424613,-0.23059618,-0.39234024,-0.18766324,-0.17982389,-0.36924133,0.348109,0.6943807,-0.18878111,0.084551506,-0.0072697015,-0.1778049,0.823654,0.65623873,0.45702258,-0.01717295,0.15236373,0.7989047,-0.3368098,-0.10425391,-0.12634258,-0.4182397,-0.6003883,0.07434886,0.24160701,-0.55297786,-0.38810095,-0.24839967,-0.03312673,-0.23116909,-0.03252429,-0.24685743,0.37189975,-0.243791,-0.064928204,-0.64729595,-0.18373533,-0.21108206,-0.8806525,0.7701177,0.12551099,-0.1634869,0.44808692,0.0679129,-0.2041914,-0.46357548,-0.37539253,-0.351178,-0.64243937,0.32117677,0.5257037,-0.29192656,-0.19757703,0.38177744,-0.056875423,-0.59742975,0.3944761,-0.5535703,0.08520944,0.02023777,0.2915586},{-0.31162253,0.19091417,0.36750063,-0.25096926,-0.26739374,0.7607515,0.84040177,-0.4755447,0.591143,-0.64631796,-0.47174758,0.35132584,-0.5754237,0.11928928,0.49813312,0.10244736,0.20281185,-0.33902684,0.053295266,0.32198745,-0.18469453,0.16152306,0.28354183,0.27694654,0.2086808,-0.14401075,0.070878804,-0.41697803,-0.20252958,-0.024653785,0.45077345,0.8489693,0.3364609,-0.20575973,-0.52262837,0.17290328,-0.19816501,-0.74984664,0.11900106,-0.5820218,-0.42156968,0.31851602,0.36939332,-0.29388157,0.048185013,-0.72999036,0.1926081,0.52109975,0.39067137,-0.772564,0.14784504,-0.21241151,-0.9380741,0.03806858,0.56624764,0.5104393,0.123461336,-0.5359369,0.69503045,-0.346361,-0.11903164,-0.27930805,-0.17802824,0.1893166},{-0.34889358,-0.14740373,-0.84781057,0.097913,-0.26323527,-0.0421878,-0.3726541,-0.13994412,0.09568068,-0.0054383525,-0.3559631,-0.08965514,0.20571724,0.11813285,0.45759568,-0.04709,0.1395198,0.07135392,0.016295603,0.53184026,-0.32175094,-0.22770792,0.31047216,-0.8069746,0.048591476,-0.013899412,-0.68812305,-0.39189178,-0.24626212,0.72799784,-0.38052562,0.50109684,0.20878887,0.13569789,-0.14926279,0.14503287,0.63255507,-0.34447202,0.13933311,0.02866885,0.16107011,0.51048094,0.5716728,0.23553745,-0.42875698,0.40793508,-0.36603165,-0.38682547,-0.1280519,-0.5253502,0.37048876,0.51921535,0.046862174,-0.16404836,0.014362649,-0.14802934,-0.3348571,-0.30273643,0.24225095,-0.18597391,0.21555385,-0.3799251,-0.14968309,0.14107832},{0.3915592,-0.06496974,0.19876057,-0.022766976,-0.26721904,-0.22126746,-0.8121701,-0.37571836,-0.90561414,0.055148326,0.3325453,-0.017207826,0.9917963,-0.20304102,0.16565773,-0.75307816,0.20929226,-1.0082853,0.53462416,0.42013645,-0.43552294,0.3625266,0.24396662,0.5079151,-0.14137149,-0.6766179,-1.2535323,-0.012623674,0.10455283,-0.5276621,0.12835997,0.072866865,0.25043803,0.5819552,0.35145107,-0.34666577,-0.6012761,0.75321007,-0.6219714,-0.2284151,0.06427407,-0.013584263,-0.7442238,0.030202761,0.47195655,0.090862855,-0.17590354,-0.40401247,-0.19289128,0.6266472,0.33627844,0.097493686,-0.39330202,0.5464527,0.11490235,0.15026967,0.13832277,0.62564695,-0.40941066,0.18181205,-0.2914713,0.7515932,-0.46837193,0.12434824},{0.30061328,-0.3408659,0.00919884,0.57289994,-0.6093009,1.0765756,-0.21834639,-0.34598252,-0.050894916,-0.37144077,-0.58951825,-0.66795146,-0.25814375,0.4977561,0.2679945,0.00801261,-0.3196097,-0.21519567,-0.48221993,-0.122663796,0.9509478,-0.05364142,-0.19707014,0.10504322,0.1928787,0.7911275,0.2206907,-0.3434328,0.5237058,-1.1376588,0.21837665,-0.31873864,-0.08635431,0.29856297,0.68244547,0.35043284,0.08946702,0.8555345,-0.11065604,0.44176614,-0.083188936,-1.0828936,0.31625554,0.009885815,0.4958822,0.49163085,0.15278733,-0.26950434,0.7815169,-0.22990559,-0.5174487,0.30769348,-0.57887995,-0.7132788,0.008484682,-0.45054114,0.20915616,0.26778528,0.12949958,-0.83709395,0.111456595,-0.31693095,0.24672456,-0.20615652},{-0.095387086,0.33394787,0.56813425,-0.5241819,0.8616342,0.16641133,1.1602114,-0.22384703,0.037274554,-0.3883538,-0.4386238,-0.022241998,-0.48058742,0.35789382,0.13898705,0.024783801,0.11562795,-0.228946,0.22324596,-0.22877055,0.072822444,0.096534796,-0.18195105,0.104006425,-0.09925967,-0.64367247,-0.15024371,0.075742014,-0.08844277,0.054097272,0.30525482,-0.46905315,0.20790413,0.050492648,-0.17631198,0.36904943,-0.25175697,0.24182707,0.19697386,0.4021759,0.39312732,-0.795402,0.64288515,0.04248111,-0.091815725,-0.03649761,0.3438791,0.5167192,0.20504317,0.31316206,-0.31616378,0.21036312,0.1713345,-0.13092326,0.79130363,0.006059153,0.10295817,0.5153272,-0.6122088,-0.21816911,-0.18431811,-0.6461682,-0.41325492,0.08772701},{-0.10798544,0.08098598,0.043073438,-0.18695305,-0.05455293,-0.410994,0.43066502,0.22852014,-0.20031707,0.032756753,0.28751537,-0.064353995,0.14297825,-0.08657356,0.104313746,-0.38723326,-0.354624,-0.06897913,0.33545816,0.43015856,-0.24212296,-0.23512824,-0.17144828,-0.2586936,0.5359313,0.18257879,0.12504862,0.10558033,0.12729523,0.39157215,-0.17105787,-0.15343507,-0.45343563,0.020339075,0.19634214,0.33069798,0.6213615,0.12662275,0.26420003,-0.57721406,-0.24789847,0.278708,-0.87585837,-0.23438852,-0.31416035,0.14474003,-0.16013423,0.061583173,-0.45150667,-0.29207408,-0.16761532,-0.21353084,-0.25786412,-0.34612083,-0.6516454,-0.0636718,0.3394709,-1.1370996,0.0826683,-0.7923136,0.14790322,-0.40919322,0.1948061,0.5128449},{-0.29881492,0.10315166,0.5982509,-0.46364504,0.4714741,-0.07420412,-0.13393517,-0.1428338,0.15697084,0.15416065,0.4185625,-0.48192215,-0.33238614,0.11537332,-0.3442439,0.23414537,-0.2577487,0.15150912,0.29215115,-0.0270896,-0.38844296,0.018188015,-0.50950634,-0.015424286,0.06679543,0.5027313,0.028397584,0.085726686,-0.009376152,0.39261743,-0.6633385,-0.01206394,0.39854762,-0.35392898,-0.1092668,-0.31799987,0.26116842,-0.14353527,-0.03955758,0.13731682,0.19172129,0.5490253,-0.64728004,-0.02568829,0.57037634,-0.12046479,0.3871768,0.41125295,-0.12504473,0.61739236,-0.17352626,0.2269762,-0.5822469,-0.15923,0.055574376,-0.50920445,-0.11900563,-0.8492215,0.14120877,0.1303597,-0.0618143,0.483113,-0.23908594,0.24147668},{-0.037903037,-0.26189888,-0.63570946,0.22746189,0.10736892,-0.46967682,-0.62380844,-0.07654201,-0.77504414,0.2421187,-0.09567682,-0.5240566,0.17330924,-0.31536168,-0.30778724,-0.07498797,0.3889691,0.33507645,-0.12645379,-0.8961808,0.75350124,0.6441999,0.37281975,0.53119594,0.21580972,0.42271298,-0.22823864,0.5151923,0.69961196,0.5845452,0.8000754,-0.14599079,0.34315696,-0.29971713,0.052170467,-0.18651712,-0.836038,-0.2593535,-0.03820302,-0.12751612,-0.046144005,-0.61491936,0.005287711,0.11192695,-0.20816953,0.12757571,0.08831639,-0.04214029,0.09476377,-0.056925084,0.26310062,0.5298429,0.21383391,0.43683413,0.17663518,0.12320352,-0.53690517,0.2765436,-0.036844257,0.008716773,0.44289264,0.6037288,-0.4093438,0.89429766},{0.30510232,-0.113518104,-0.25388855,0.10531688,-0.17061503,-0.595112,-0.2732944,-0.25683355,0.14594336,0.3130767,0.8549121,-0.19075182,-0.24524128,-0.33254856,0.02856919,0.6173059,0.8003192,0.34726384,0.23465872,0.6469598,0.6381489,-0.30296966,-0.48752287,-0.01513028,-0.19373901,-0.4370057,0.18913127,0.5517981,0.0068788924,-0.25623623,-0.32078937,0.34711835,-0.11413246,-0.41470814,-0.24777028,0.6501271,-0.07295995,-0.02478688,-0.97194463,0.13483743,0.06240042,-0.82452947,0.22620086,0.48711225,-0.12692423,0.513363,-0.39865083,0.32960758,-0.2261696,-0.46010813,-0.16685127,-0.52251995,0.31102592,0.6439954,0.043629546,-0.006236351,0.64193994,0.67762315,-0.4487787,-0.07262561,-0.5017172,0.014247753,-0.1985614,0.53430974},{-0.40148994,0.52066666,0.2325417,-0.054577388,-0.2674202,0.8558499,0.6035105,-0.4316245,-0.15214096,-0.41355678,-0.50808954,0.37030977,-0.5849249,0.13359477,0.63269275,-0.14513704,0.4371926,-0.33300555,-0.2158755,0.11025825,-0.3746743,-0.09831333,-0.06917775,0.3815446,-0.31393388,-0.41165847,-0.29808792,-0.30333108,-0.15109923,-0.3746483,0.2548569,0.7435342,0.4077416,-0.26046076,-0.5262959,0.10000517,-0.7748375,-0.6900647,0.270719,-0.25953692,-0.15215063,0.15308651,0.39639956,-0.2942971,0.2906976,-0.5359153,0.36234888,0.11485291,0.9371129,-0.52564025,0.4364261,-0.03795221,-0.46226647,0.05430564,0.71764284,0.21376847,-0.2614858,-0.55789274,0.57115656,0.31876493,0.27065516,-0.13399519,0.024266263,0.21675456},{-0.33333355,-0.05503445,-0.69455725,0.003155735,-0.45737872,-0.54462665,-0.31532237,-0.19976947,-0.06453082,-0.3600219,-0.34969786,0.16022903,-0.2653092,0.06761064,0.39111644,0.28009883,0.47804835,0.24569423,0.20058797,0.4099998,-0.11065239,0.029261803,0.43710214,-1.0389478,0.17579396,-0.09291542,-0.6557119,-0.12417179,-0.63697803,0.84874547,-0.7496637,0.46109647,-0.16708241,-0.07565165,0.18134314,0.58784133,-0.06376419,-0.05411284,0.31554267,0.2090586,0.020212961,0.4684381,0.6276537,0.022129463,-0.16332163,0.107751824,-0.5001884,-0.1609471,-0.07542929,-0.50031334,0.11464226,0.50791216,-0.3060298,-0.104776375,-0.29709315,-0.37919918,-0.0064317123,-0.16936359,0.6961962,-0.58587664,0.07982718,-0.1551691,-0.0069795502,0.41909024},{0.15609996,0.13037719,-0.02144592,0.4124147,-0.6780762,-0.3587501,-0.37295318,-0.15351897,-1.2604347,0.45926112,0.46500748,0.41512674,0.78763026,-0.17151959,0.44837603,-0.75165087,0.3592946,-0.47816733,0.5609781,0.04080681,-0.34193718,1.0125449,0.40491447,0.0557481,-0.26328433,-0.45563212,-1.1653054,-0.33471468,-0.2466704,-0.23272389,0.19661555,0.046825316,0.42300516,0.60682404,0.14210767,-0.56116265,-0.62269336,0.22483297,-0.59914887,-0.5002801,0.07296839,-0.21204366,-0.6585979,0.16271465,0.4221127,0.254589,0.32149005,-0.75039154,-0.22472826,0.62911046,0.7307388,0.15582336,0.23526336,0.78204656,-0.22820985,-0.20337206,0.1337659,0.375682,-0.31332135,0.17733268,-0.09937808,0.626717,-0.23455429,-0.1215007},{0.09559424,0.00026993593,0.30899838,0.6467502,-0.8228562,0.6658893,-0.1148374,-0.38824782,0.039311737,-0.12647659,-0.60085094,-0.76720786,-0.084136404,0.051518567,0.36866143,-0.35475644,0.09548241,0.068133555,-0.48453826,-0.25244364,0.7658656,-0.11590165,0.041906573,0.43359405,0.25739688,0.75487846,0.47110295,-0.037674803,0.60071135,-0.8579582,0.36132157,0.13657206,-0.03948329,0.34129602,0.36884683,0.03748571,0.85092694,0.70602393,0.1713768,-0.11096251,-0.24349833,-0.8620215,0.5158629,0.06466283,0.21847819,0.5594216,0.20448317,-0.033671126,0.75359815,-0.4377472,-0.7680724,0.30401263,-0.63411146,-0.81909496,0.21293668,-0.14515828,0.3545814,0.29467413,0.82095504,-0.90286463,0.374757,-0.35550335,0.123538464,0.0023427536},{0.04323276,0.91490036,0.3541774,-0.34541133,0.79777306,-0.027445953,1.0437397,-0.16597453,0.30509752,-0.40532017,-0.7114677,-0.021421783,-0.9291965,0.4260201,0.2948012,0.055863533,0.025013402,-0.29199886,0.10436135,-0.16300356,0.08005287,-0.23216237,0.011850706,0.007813812,-0.509257,-0.82912064,-0.6388374,0.16387255,-0.26391125,0.025794994,0.3187144,0.020693198,0.38354787,0.07466327,-0.19422477,0.33245638,-0.2839845,-0.04449167,0.33688197,-0.016772643,0.51097924,-1.1792268,0.67969745,-0.051378418,-0.24556202,-0.13654892,0.8099058,0.5353962,0.5367747,0.4697825,-0.55067915,0.21647774,-0.028227553,-0.5804194,0.6774591,0.28499672,0.11297364,0.44746935,-0.60278445,0.17934008,-0.016471876,-0.35750166,-0.3076553,-0.23336387},{-0.055139374,0.43026713,0.30932742,-0.29655367,-0.18690957,-0.47756502,0.24245712,-0.07299774,-0.118066385,-0.043724995,0.009007152,-0.50785315,0.21289498,-0.00072992034,0.28935474,-0.547813,-0.5323816,-0.0133465715,0.38858742,0.7631279,0.008791749,-0.24523464,-0.24198654,-0.23748912,0.21597807,0.5381259,-0.20485039,0.22438213,0.12797335,0.006210359,0.08571547,0.19674411,-0.7716763,0.14648402,0.3640151,0.52028793,1.0492529,0.20631197,0.4151567,-0.31364554,-0.39969906,0.5854561,-0.68595546,0.2798882,-0.20783445,0.3187701,-0.23201083,0.38546747,-0.06782924,0.06754839,-0.18083522,-0.28011164,-0.08534545,-0.4917173,-0.7158456,-0.3482641,0.20594001,-1.2338517,0.41834807,-0.51546556,-0.19756714,-0.14292374,0.33566356,0.37174004},{0.12472202,-0.0055679,0.8276559,-0.09593244,0.21651523,-0.50812256,0.0065696226,-0.42616776,0.33805248,0.30695978,0.6579416,0.0030889213,-0.22884513,0.19407539,-0.2245563,0.28285706,-0.046255823,0.075847,0.38641086,0.20164388,-0.23356627,-0.28297868,-0.7374754,0.115579255,-0.14282699,-0.02277706,0.0082495995,-0.11012099,0.050359167,0.4247888,-0.66287553,-0.33698347,0.56499565,-0.45984855,-0.0016541706,-0.44819725,-0.16394113,-0.3459276,-0.06494934,0.0061252504,-0.11900364,0.16093224,-1.156155,0.042990837,0.65730536,-0.07730459,0.4950169,0.21167757,0.053812243,0.21005465,-0.4024972,0.13934012,-0.19607094,-0.30895644,0.3766965,-0.33235282,-0.011815657,-0.47200227,0.32276082,0.21773788,-0.39111617,0.031652857,-0.04862275,0.028018285},{0.046982005,-0.27686226,-0.05972859,-0.25796598,-0.02692113,-0.27637553,-0.2850097,0.2244868,0.031145453,0.2739786,-0.3016393,-0.306523,-0.06455052,0.07819647,-0.34574988,0.102373816,-0.3965161,-0.596808,0.068173766,-0.051495593,-0.1078002,0.07614486,0.12724726,0.15351652,-0.25164685,0.083860844,0.17107348,0.020196175,0.14499421,0.09818886,0.115201615,-0.22871104,0.19888681,0.1403846,-0.30087578,0.16642721,-0.22478633,-0.24883184,-0.15628955,-0.19007288,-0.11610865,-0.23605588,0.06047398,-0.09598459,0.2331999,-0.2007538,-0.15091713,0.16301197,-0.39422458,0.16585125,0.0065640425,0.30203256,0.014351603,0.040742714,0.37288228,0.12409234,0.25255063,-0.03980261,-0.22886796,0.13714941,-0.22751455,0.3689301,0.5486585,-0.13403179},{0.19932444,0.08002396,-0.07243806,0.14650653,0.2996538,-0.08658916,-0.20396751,-0.16124214,-0.06916317,-0.11081415,0.074368276,-0.0493346,0.19454001,-0.23101033,-0.17933914,0.19867799,-0.16245085,-0.34103015,-0.1715543,0.18780154,0.21119958,-0.034114394,0.07081413,0.4565311,0.20007072,-0.20588392,-0.31508338,0.091151506,-0.23111148,0.17732693,0.22049409,0.092911355,0.2778137,-0.24641152,-0.36917245,-0.060129978,-0.39822567,0.20553054,0.40247658,0.2070874,-0.30586916,0.108939335,0.21479063,-0.29926577,-0.11484262,-0.15592463,0.0874414,-0.11490981,-0.09600117,-0.33110097,0.08856083,-0.20045018,-0.46949512,-0.030772252,-0.14880274,0.19771907,-0.038140856,-0.08563113,0.19446361,0.19375345,0.2536527,0.20529875,-0.12934048,0.11561172},{0.07749093,-0.07910135,0.20727764,0.16799697,-0.014056695,-0.15382494,0.25688264,-0.20419803,0.19214898,-0.030755622,-0.01992695,0.44760025,-0.095669605,-0.17486045,0.06500122,-0.064895295,-0.11000018,0.018215314,-0.017331026,-0.16222136,0.08487998,0.15566826,-0.30551895,-0.06557076,0.1286014,0.06878072,0.11810651,-0.23181254,0.3345744,0.1279418,0.20277867,-0.11254668,-0.09784678,-0.25988054,-0.013596571,0.22773959,-0.08152582,-0.09328691,-0.37057203,0.09533705,-0.28580543,-0.1180463,-0.2703849,0.03673026,0.23717569,0.29896507,-0.48417822,-0.2233728,0.13599275,-0.25633374,0.26184654,-0.01751562,0.09355546,0.1803269,-0.40085238,-0.14659514,0.059734307,-0.39031017,-0.9298116,0.012156057,-0.26644737,0.36557707,0.1885614,-0.12536742},{0.15742303,-0.3896492,0.19848843,-0.18916395,-0.2439758,-0.09140668,-0.015752874,0.27700135,0.061574414,0.25086966,-0.33977076,-0.24245717,-0.028102947,0.24046761,-0.0067606475,0.24268189,-0.38065168,-0.6963009,-0.21441895,0.21474762,-0.19983405,0.27990806,0.15898965,-0.2470637,0.010942975,-0.058218185,-0.15250318,-0.17346928,0.21117,0.27632686,-0.18691462,-0.21048096,0.37746137,0.1734498,0.026299234,0.39687225,-0.18789907,-0.011406221,-0.027568853,-0.25183997,0.22666539,-0.05740815,0.016553825,0.18432418,0.23405129,-0.3285977,0.08064867,0.11260935,-0.37448478,-0.10603868,-0.2634001,-0.045982003,-0.18244377,-0.15146749,0.12850837,-0.000495817,0.13555333,0.2722302,-0.050770853,0.30509838,-0.3515808,0.43258536,0.7075286,0.22320367},{-0.19366522,-0.35227114,-0.012291484,0.024816558,0.37733933,-0.18370447,-0.3272942,-0.30501586,0.19970535,-0.40484238,0.20818135,0.32576725,-0.027415304,-0.14398815,0.1789136,0.12550044,0.27868426,-0.332773,0.033138275,-0.07413819,-0.11266536,-0.20449542,-0.23221882,0.25774568,-0.028022885,-0.10395583,-0.35050213,0.16880934,-0.15209858,0.13891414,-0.020465635,0.33570856,0.020640224,-0.14442231,0.062360562,0.35881743,-0.4471733,0.18917523,0.5526907,0.02172084,0.017711015,0.10844247,-0.21226256,-0.40414152,-0.21394578,0.013174713,-0.10811436,-0.20999795,-0.46765864,-0.31195882,0.009829326,-0.29151538,-0.49285924,-0.0809921,-0.083927184,0.23475689,0.082557864,0.16521895,0.09235786,0.10655168,0.33070982,-0.053662125,0.10331161,-0.2802999},{-0.14906158,0.097248875,0.03613198,0.26953202,0.15390052,-0.14614154,0.2050414,-0.01854335,-0.07609443,-0.27225018,-0.0041981027,0.3748005,-0.01579485,-0.35306448,-0.104258984,-0.07766404,-0.13765888,-0.29525095,0.26598504,-0.083596855,-0.09610666,0.04243854,-0.1630497,0.11373314,-0.018489137,-0.03936898,0.08355289,-0.09436424,0.25827992,0.18238588,0.16457492,-0.080188945,0.22226156,-0.1069762,-0.25972313,-0.07708377,-0.07734044,-0.012436477,-0.22373609,0.46567675,-0.15992717,-0.020819712,-0.18640842,-0.19456756,0.26403105,0.29206523,-0.19526716,-0.08272237,-0.11887026,-0.093158066,0.3544591,-0.028532023,0.07704949,-0.12281402,-0.3288675,0.13888632,0.2840381,-0.10943963,-0.98842454,0.43332094,-0.24594195,0.054608654,0.15697975,-0.19637282}};
static const float layer_1_weight[64][64] = {{0.10877137,-0.17929332,-0.07215311,0.06916697,-0.43937364,0.13495179,0.18847495,0.21009533,0.27127144,-0.14138982,0.061276708,0.20243281,-0.21342015,-0.029854802,0.18881561,0.13572803,0.11240785,-0.14807513,0.21254553,0.17734861,0.04930084,-0.15137437,-0.2955056,0.25574335,0.104969434,-0.25492463,0.20437947,0.05870023,0.10550115,0.10121773,-0.14672746,0.062167842,-0.30772945,-0.26943547,-0.12313395,0.07823916,0.30208024,-0.057786085,-0.37574846,0.039855,-0.21393001,0.01550435,0.32635504,0.32490322,0.39028853,-0.28888026,0.11000063,-0.33410558,0.13261612,0.23073894,0.21032444,0.005774716,0.44546187,0.2730879,0.19686598,0.24026652,0.20920779,-0.10215604,-0.45282155,0.25173274,0.21529755,0.13858593,-0.17451386,-0.20182541},{0.22108342,0.2602699,0.16591516,-0.0140409,0.10131979,0.0542055,-0.049597476,-0.20708343,0.3661967,0.009846413,0.11078724,-0.08221966,0.2003049,0.0010943582,0.26806468,-0.007222421,0.034204558,0.05171652,0.0352165,-0.15167592,-0.30703527,-0.048514403,-0.015857065,-0.23011893,0.43216968,-0.040353782,0.22197634,0.13266614,-0.057714283,0.37217185,-0.10697145,0.10421658,-0.17421453,0.05472635,0.27285925,-0.0042689224,0.14470798,0.05832528,0.060950197,0.27208766,-0.07189395,0.1129923,0.22165215,0.0055780634,0.05925517,0.265452,-0.09547713,-0.34166557,0.22360694,-0.23103066,0.055703126,0.14530157,-0.3690266,-0.076365925,0.2373677,-0.0789245,0.026920583,-0.020393426,-0.15779424,0.37520337,-0.05130931,0.025192419,-0.11596813,0.067416266},{-0.03502028,0.28568974,-0.009455217,-0.22865842,0.15735894,0.042860594,-0.3310166,-0.058065142,-0.13701712,0.17844251,-0.033420775,-0.118184015,0.026900396,0.22877866,0.2546771,-0.02171757,-0.11973907,-0.1853753,-0.24100217,0.43395448,0.2708504,0.09071216,-0.17858961,0.046804387,0.33546573,0.23647936,0.078753024,-0.46425143,0.032235608,0.17924926,0.30358964,0.36864424,-0.09116206,-0.09520746,-0.113521375,0.21291028,0.080896646,-0.23668465,-0.032483287,0.12936778,0.1005219,-0.009066864,0.21294661,0.26666892,-0.033002723,-0.10974947,0.08604945,0.36238882,0.11942815,0.18995367,0.07236768,0.2766703,-0.14097328,-0.19610623,-0.0010345206,-0.14268479,-0.19420113,0.11423902,0.13233693,-0.12352727,0.13833784,-0.07785222,0.19730522,0.031710044},{-0.054529436,-0.28093788,-0.27455252,-0.16420801,-0.259134,0.16001971,0.20964444,0.028383808,-0.26375654,0.32425135,0.13220605,0.20118476,-0.17002633,-0.28260732,-0.06987444,-0.1545249,0.18331645,-0.26958534,-0.15334234,0.11582399,0.38532603,0.22777456,-0.09563126,-0.24592094,0.19728108,0.118759185,0.24909525,-0.14245781,-0.21627481,-0.074300334,-0.17895207,0.23369846,0.24570854,-0.16496567,-0.31517792,-0.055337895,0.038348112,0.0010615707,-0.2571987,0.040900104,0.19953692,0.08479485,-0.22181189,0.04826656,-0.060549255,-0.14578632,0.21152754,0.030174032,-0.05146436,0.012295695,-0.21920872,-0.116105124,0.1450354,0.01671387,0.029492525,0.093740016,0.20238785,-0.10035423,-0.16974281,-0.22916095,0.14108042,-0.04977973,0.0347873,-0.04795475},{-0.107168116,-0.013651115,0.05859331,0.025676679,-0.19920453,-0.16661571,-0.34296992,0.16664961,0.2444599,0.14552903,-0.10888886,-0.17904603,0.15908872,-0.16472481,-0.17297557,0.14538752,0.019857973,0.23809388,0.2227698,0.24607709,-0.10134831,0.35756835,-0.0703605,-0.010509232,-0.07293469,0.111037694,-0.16702059,-0.029646207,0.16491066,-0.32155305,-0.0056205248,-0.014039721,0.24223025,0.11942843,0.07485238,-0.2186483,0.094498545,-0.083681084,-0.015652549,0.13873427,0.21109433,-0.21679921,0.18805653,-0.10445521,0.20140499,-0.14055958,0.025401006,0.2435441,-0.22429824,-0.22930603,0.16158098,0.043868,-0.14943245,0.025049727,-0.14741735,-0.20975663,-0.0021995006,-0.032979902,0.15273774,0.026539706,0.11434752,0.13216116,0.08977151,-0.16418104},{-0.33543944,0.25953558,-0.28118324,-0.014606273,0.086067595,0.107374616,0.47494313,0.06248073,0.1444842,-0.17687985,-0.19120923,0.019305546,0.120485425,-0.07715439,0.14590697,0.109924264,0.10268961,-0.32519427,-0.19456874,0.097891025,0.23364727,0.06610781,-0.14270264,0.17777586,0.18632996,-0.14576869,0.17617027,0.12110481,0.24485257,-0.15805085,0.10622234,0.23017862,-0.20389593,0.07164282,-0.27850312,0.15465204,0.18243703,-0.13647449,0.15635078,0.19675307,-0.30271816,0.037347067,0.11343499,0.14791767,-0.07293965,-0.1717156,-0.11152163,-0.5629887,-0.12519336,-0.028409308,-0.08615234,0.0012072597,0.20176433,0.06522914,-0.08578401,0.24437462,-0.009420153,-0.21524422,-0.22845116,0.15157375,-0.20384304,-0.06738031,0.13693313,-0.1451437},{-0.31733784,-0.4350385,0.017204301,-0.014618309,0.19616419,-0.16812538,0.07339507,-0.07722639,0.0020961773,0.15497197,0.29616565,0.09198076,0.18369022,-0.16616848,-0.16729721,0.16542196,0.22240488,0.12609033,-0.15719868,0.12882003,-0.47061875,0.027819533,-0.20261922,-0.123428375,0.22556536,-0.21948494,0.13314275,-0.2456171,0.12353891,0.008491801,0.01775309,-0.19522561,-0.070218705,0.3615062,-0.18892789,0.0268328,-0.023988763,0.0877967,-0.3029164,-0.043779846,0.13939261,-0.0045874184,0.20549652,0.19644055,-0.34145784,0.035687372,-0.1583553,0.06688708,0.0034606217,0.18620339,0.097109154,0.104114465,-0.040640168,0.16765513,-0.15104227,-0.17172644,-0.08561401,-0.24116029,-0.25446054,-0.0247855,-0.14679475,-0.32112885,0.2686209,0.2864454},{-0.20638183,0.11204877,-0.04061453,0.1862258,-0.09627659,0.09867481,0.3302993,0.09205714,0.14315504,0.060911547,0.06709596,0.07243198,-0.07847317,0.29281616,0.13898094,-0.05478913,0.16086821,0.12589951,0.15874174,-0.04572659,-0.103956215,0.11278163,-0.030927416,0.24439663,-0.13114145,0.060365483,-0.012969593,-0.2294514,-0.22161101,0.19335002,0.31185183,-0.14034183,0.1358306,-0.062530376,0.23370966,0.15260391,0.23538232,-0.014586389,0.37012276,0.22953925,-0.22810853,-0.16436715,-0.08471496,0.14165919,0.3018274,0.07091579,-0.048849247,0.09791022,0.048460457,-0.24617164,0.078962736,-0.27457142,-0.06927388,0.1555284,-0.032849763,0.42497227,0.1907332,-0.0022480781,-0.24592051,-0.010030856,0.23268673,0.058913615,-0.11578637,0.056886308},{-0.23474571,-0.2970002,0.18628688,0.012217867,0.15938495,-0.18522911,-0.3177548,0.21290956,-0.27701703,-0.3131267,-0.27711657,0.08150678,-0.34439796,-0.32419312,-0.043924686,-0.09869983,0.07062705,-0.006428382,-0.13897087,-0.01537847,0.19561933,-0.39428052,-0.15503938,0.15502019,-0.15734743,0.1564292,-0.2903314,0.28762785,0.101632,-0.04604079,-0.008389138,-0.13242057,0.044588145,-0.115004875,-0.101121515,0.06275743,-0.21329525,0.009295358,-0.2178188,0.025411483,-0.06485026,-0.16789193,0.031400945,0.19389002,-0.0738333,-0.015841419,0.25383657,-0.08939474,0.10822593,-0.11846213,0.09457442,-0.105100736,-0.2628575,-0.24762498,-0.06791816,-0.11691159,-0.17224784,0.01785506,-0.12936643,0.016611751,0.034428723,-0.23390168,-0.07931414,0.25448933},{-0.280713,0.015818689,-0.66345006,-0.20775868,-0.07893117,-0.23813795,-0.44539917,0.11379971,-0.29345727,0.5170202,-0.19665287,-0.01981745,0.033920005,-0.10120299,0.11656229,0.28962883,0.23842558,0.071956955,0.546916,-0.25762367,0.16021171,-0.13397448,-0.24541269,0.34542903,0.0049068993,0.12822919,-0.2911271,0.35075542,-0.29362425,-0.023731582,0.049240537,-0.084519334,0.49137324,0.22096066,0.060899604,-0.053905096,-0.44830692,-0.15787072,0.26364115,-0.04989119,0.032714244,0.24273694,-0.46078262,0.0900899,0.032729246,-0.35324338,0.11666157,-0.078357495,-0.51566917,0.113459244,-0.31228587,-0.0039077965,-0.42865872,0.13388196,0.18377842,0.135899,-0.041318845,0.29850706,0.092947885,0.108690076,0.17075634,-0.074814275,-0.059408292,-0.30422375},{0.0032767588,-0.108753115,-0.28029403,-0.36188582,-0.066348664,0.060420785,-0.0010698948,-0.078502804,-0.039703,0.09517995,-0.06263236,-0.12547655,0.005892842,0.12574759,-0.21877727,0.19309157,0.30388415,-0.013232371,-0.06954384,0.3079512,0.34945145,0.47218704,-0.4388596,0.12888911,0.035785172,0.029490966,0.14370255,0.16527504,0.31207907,0.11295162,0.17715943,0.18498549,-0.18467824,0.20666847,-0.2846535,0.18084447,0.04834584,0.061938465,-0.010542132,-0.4701453,-0.20579818,0.10981899,0.40035927,0.07214684,0.1423525,0.042909447,-0.050168205,0.19862723,0.1354311,-0.05464227,-0.30475417,-0.06152347,0.23612173,0.13271186,-0.35478756,-0.13147017,-0.17331429,-0.16202256,-0.3349837,0.15203148,0.11523318,0.54980534,-0.26616186,0.03143495},{0.1452914,0.0670998,0.0060679587,0.13143557,-0.2862521,0.23260175,-0.3845871,-0.07638578,0.25189522,-0.19398841,0.011424353,0.18497838,0.1942878,0.1322495,0.023817295,-0.12176709,0.38017094,0.17788751,0.019357836,0.45689645,-0.038760435,0.08596367,0.2608629,-0.30378535,-0.06762443,0.088759735,-0.13116685,0.11903282,0.062262863,0.006071958,-0.36123782,0.066338524,0.2914056,-0.05042121,0.10240283,0.011746764,-0.28662512,-0.10960732,0.10376533,0.001982801,0.25913283,-0.22051527,-0.044564046,0.035880093,-0.53513974,0.1613149,0.02999711,0.3929957,0.023710687,-0.20031816,0.056429952,0.21296915,0.1663573,0.26484358,0.073868334,-0.066430934,-0.15452904,-0.29766032,-0.09078848,-0.1557175,-0.09783781,-0.24822268,0.1473653,-0.077104494},{-0.22147427,-0.21603769,-0.07872026,-0.15742263,-0.101838015,0.13507678,0.31631652,0.25408083,-0.15083036,-0.2391712,-0.13573296,-0.17517053,-0.059078097,-0.30045053,-0.04377387,0.08767065,0.14803153,0.031854603,-0.092487104,-0.065207005,-0.25106844,0.004689097,0.19826037,0.27483895,0.10074909,0.020195425,0.32422733,0.040248252,-0.0073730433,0.29265815,-0.24989472,-0.23533028,0.013749877,0.21744636,-0.1202644,0.15973184,0.144217,-0.06687734,-0.049632195,0.24505712,0.17527564,-0.2461178,0.011310338,0.10553439,0.48560113,0.053713083,0.15832728,-0.07936454,0.006894047,-0.18801913,-0.06796475,-0.17840187,0.14941713,-0.2451323,-0.09363581,0.021560745,-0.19936512,-0.02238626,0.09162395,-0.11149098,-0.112221286,-0.020968225,-0.32699186,0.1425713},{-0.19548091,-0.48416853,0.03571549,0.035575304,0.008200674,-0.07185777,0.47914046,-0.10530755,0.29181376,-0.08453494,-0.24420857,0.20766425,0.19971411,-0.26714697,-0.06635758,0.28580698,-0.042250108,0.23245014,0.114790365,-0.38498962,0.16048834,-0.123476684,0.28551918,0.008510275,-0.098166026,0.049505867,-0.6304389,0.22748409,-0.09756923,0.022022447,-0.3585054,0.18478125,-0.2227183,0.09604859,0.1464975,-0.0010937933,0.14330542,0.40600306,-0.16869307,0.15013379,0.45385882,-0.10969446,-0.16736597,0.23587266,0.38616747,-0.102691084,-0.13390541,0.2392215,-0.22915192,-0.021518873,-0.08257523,-0.14100504,-0.18955193,0.13200948,0.23091719,0.006781358,-0.17354153,0.41930485,-0.16215216,0.120012306,-0.1818188,0.07610198,0.092276625,-0.15564595},{-0.2088786,0.2239943,0.0718694,0.045389,0.28586915,0.10237454,0.074398085,-0.2461537,0.033715945,0.036183838,0.21440768,0.21825911,-0.122564934,0.101047285,-0.14366563,-0.040741913,-0.13175987,-0.20424668,-0.27504858,-0.15650289,-0.49249518,0.1039441,0.12996946,-0.07454454,-0.38565892,0.25912267,-0.14979142,-0.020723106,-0.28508416,0.14330949,0.333363,-0.35147667,-0.18056563,-0.17834145,0.14781202,-0.33913186,-0.47808126,0.30634543,0.37259224,0.28545338,-0.09055255,0.080763295,-0.49741298,-0.19331361,0.028857699,0.23892134,-0.066298395,-0.31831187,-0.04100964,0.0894699,0.14664176,-0.06514506,-0.13391319,-0.029337576,0.23443533,0.10117771,-0.08252863,-0.062867425,0.21292605,-0.064078495,0.24265307,-0.12447464,-0.029588003,0.31382096},{-0.15597135,0.07454108,-0.0243016,-0.09434451,0.23172604,-0.19069439,-0.12388389,0.17540078,0.10582219,-0.6200101,-0.22226161,0.15996583,-0.09638691,-0.2818943,-0.14531489,-0.09988905,-0.045333892,-0.05090898,0.20673887,-0.23946851,-0.21194182,0.0294765,0.101343445,-0.083304435,0.05713419,0.044910386,-0.120206766,0.08228155,-0.19593467,0.3046396,-0.34749362,-0.08257743,-0.2909466,0.21893577,0.03807371,-0.033758987,-0.17969343,0.15372334,-0.16698281,0.09460745,-0.055712204,0.08108736,0.31004322,0.24368529,0.20894013,0.24848834,0.13729201,-0.2944358,0.10213551,0.15661794,-0.10393926,-0.10895987,0.087302685,-0.19611827,0.102179624,-0.10614302,-0.15828614,-0.024721127,0.12193043,0.3146585,0.17972341,0.017037528,-0.035622485,-0.08722486},{0.12718073,0.28859735,-0.007341158,-0.20880626,0.18967502,0.2730289,-0.16323361,0.45113698,0.31217867,0.12780042,0.011466574,0.31323323,-0.06987009,0.30231103,-0.06371303,0.034079555,-0.19903521,-0.3248118,-0.34415448,0.42666417,-0.31804916,0.22418422,-0.0719627,-0.09548231,0.33695957,0.046053868,-0.32858962,-0.09540937,-0.21008052,-0.027986547,-0.3093018,-0.036512293,0.13216585,0.28695387,0.06375926,0.056440923,0.0697467,0.21107543,0.15854335,-0.16061294,0.14203042,0.10979304,-0.3777666,-0.39797574,0.24020736,0.29669523,-0.05510843,-0.061012287,0.02762465,-0.06741725,-0.005495449,0.1717738,0.12092833,-0.15927559,-0.28337225,0.11673006,0.31204692,0.14282647,0.15367371,-0.273803,0.07669307,0.16751003,-0.1793323,0.3784785},{-0.4010778,-0.05229839,0.4168781,0.2690168,0.064161316,0.14185503,0.18736877,0.22120999,-0.14532079,0.26792586,-0.2744283,0.014887564,0.13833246,-0.036868263,0.03252413,0.060359202,-0.35692176,0.04139546,-0.044778913,-0.32962808,-0.072519414,-0.3728995,-0.01859834,0.20666367,-0.1552831,-0.07471799,-0.09978702,-0.27056056,0.22484805,0.35187173,-0.1976556,-0.12297575,0.14345844,-0.34131715,0.095634535,0.1409743,-0.17958605,0.4130442,0.072911754,-0.1026082,0.24588333,0.3948222,0.24353568,-0.020302135,-0.06447431,0.09727599,0.17047763,0.11878858,-0.103798084,-0.18753217,0.09473464,0.33328316,-0.04606781,0.31248242,0.29336214,-0.28719604,-0.16578075,0.28277192,0.09520123,0.14001797,0.14456056,0.0940098,-0.052426863,0.33974037},{-0.21187519,0.11239613,0.050041337,-0.114524454,0.21329297,-0.1730925,0.15108283,0.22145735,-0.008816366,0.061267473,0.2981694,-0.08578991,0.17533457,0.072037004,0.10364277,0.17252018,0.10556928,-0.057153415,0.07317026,0.2584167,0.17948873,-0.091810286,-0.099057764,-0.03353994,0.1998836,0.1134788,0.027106613,0.098440774,0.0327502,0.19273151,-0.0074374094,-0.03445557,0.19675975,-0.20851743,-0.19447605,-0.05577936,-0.09790032,0.19521758,0.13669372,-0.050367683,-0.07833291,0.07587758,0.09896617,0.14694782,-0.09824678,-0.31241047,0.03407397,-0.048037622,-0.062401976,0.001531137,-0.31445825,0.20704372,-0.01487943,-0.09771405,-0.009308173,-0.13769783,-0.15236372,-0.24417712,0.017210001,0.21016136,0.13939904,0.28922054,0.0055814884,-0.061253805},{-0.0229468,0.11707905,-0.05355021,-0.11968136,-0.16082144,-0.12875332,0.14203611,0.1986951,-0.05924181,-0.22854646,-0.058246084,-0.1270496,-0.042830147,0.07338899,0.10663227,0.14600843,0.0076390076,-0.0571042,0.13733296,-0.21081896,-0.12811106,0.23293714,0.027587807,-0.27367583,-0.2913757,0.12216348,-0.029259311,0.21439923,-0.017018937,-0.17298163,-0.048396498,-0.17222749,-0.38346538,-0.107996956,-0.086367026,-0.046707522,0.108352505,-0.043270215,0.0080402065,-0.04194647,-0.1231344,-0.26219106,-0.36744386,0.08028116,0.21589737,-0.09187811,0.028477438,0.2976797,0.06250895,-0.24233086,0.13818629,0.08485315,0.22639403,-0.027787307,-0.08710272,-0.22475156,-0.11839442,0.011813953,0.087559655,0.07019126,0.066526115,0.008049204,0.058028784,0.05834988},{-0.10409179,0.012642826,0.25585082,0.26955506,0.23998056,-0.067873,0.0329069,-0.1361325,-0.0002442626,-0.02610827,-0.11618511,-0.07064133,-0.14964263,-0.24465749,-0.0483251,-0.1604264,-0.20164223,-0.039057758,0.17442824,-0.43048424,0.0025856106,-0.09434317,-0.066685624,-0.12613428,0.15280734,-0.0109760715,0.08399488,0.53634214,0.23518512,0.12194359,-0.23264937,-0.15679972,-0.03167452,0.13440569,0.03498387,0.0503544,-0.14046325,0.24582501,0.19366053,0.051507983,0.2090005,0.25831267,-0.067955606,0.028224528,-0.10784951,0.14945377,0.1348317,-0.26805538,-0.15511703,-0.082153715,-0.2397277,0.046567082,0.091024496,0.03749141,0.08973083,0.18968582,0.22295311,0.08835751,0.009987395,-0.080659315,-0.13378276,-0.08625928,0.098032385,0.20389748},{0.32578012,0.19885463,-0.25301915,0.11821071,-0.13460928,0.033822782,0.085389495,-0.048205376,0.13318475,0.07310317,0.21723288,-0.17372218,0.18293984,0.1358743,0.11412642,-0.14643872,-0.18954934,0.04885811,-0.24999516,0.03692662,0.021946436,-0.08256459,0.29418018,0.016820671,0.08166235,-0.07726134,0.054440048,-0.25704932,-0.12138514,-0.1936245,-0.15409479,-0.042497348,0.12862983,0.16082947,0.14488466,-0.11689287,-0.22977094,0.18706442,-0.16161351,0.089804955,0.15707266,0.22192796,0.030861784,-0.1119767,-0.63939446,-0.12803851,-0.23542204,0.3934376,-0.31428033,-0.08039588,0.013600524,0.24543793,0.12454625,0.24972135,0.041776057,-0.01960678,0.036392942,-0.024094347,0.20714734,-0.32296696,0.25149795,0.3495896,0.13645855,-0.03536534},{-0.27284414,-0.3863505,-0.13490957,-0.0765803,-0.25578058,0.07497434,0.05513077,0.14674963,-0.08159502,-0.19189747,0.22310655,0.23195007,0.13317612,-0.29060867,0.3159209,0.020340702,-0.13956216,-0.13209002,0.2702251,0.005615944,-0.17850223,-0.19377443,0.044574365,0.08629986,-0.0074328086,-0.09096102,-0.005414597,0.022294508,0.029091507,0.20903452,-0.011821757,0.069543384,-0.31971338,0.27367038,0.065044604,-0.23016222,-0.05736706,-0.1975753,-0.041104507,-0.060829446,0.03631284,0.051802266,-0.17311399,-0.23063365,0.16639449,-0.1451848,0.112691656,-0.65854055,0.08370592,0.053351182,0.35438874,0.061208095,0.088544495,-0.033208925,0.14989354,0.029783003,-0.21178043,0.16421272,0.13625836,-0.10646647,-0.15012458,-0.075112306,0.018682279,0.042752884},{-0.14566267,0.32757702,-0.27643335,-0.057810266,0.07617002,0.066974536,0.2620376,0.10757658,-0.2535544,0.036419895,-0.045287658,0.019223746,-0.30474734,-0.08104472,0.16596352,-0.19275399,-0.11742512,0.18906447,-0.037016746,0.059143394,0.07657133,0.21589601,-0.30046862,-0.25213307,-0.17702477,-0.016795307,-0.10297493,0.32417694,0.11930825,0.17328146,-0.2545924,-0.091159135,-0.27442086,-0.1471666,0.015001284,0.20437431,-0.18750586,0.26358044,0.27223256,-0.067370936,0.06300179,0.15684442,-0.23217581,-0.04227541,0.19228028,0.10060709,-0.033517856,-0.37367702,0.1066966,0.0030780262,0.08621238,-0.16012208,0.22513662,0.14970013,-0.1726244,-0.20997731,-0.0377492,0.22073987,0.23426484,-0.09437301,0.020264816,-0.034365304,0.016177727,-0.13277775},{-0.050872635,0.048307832,-0.032720506,0.07071483,0.1535175,-0.1574133,-0.03623875,-0.035283916,0.13215302,-0.083466016,0.19643551,0.109862305,0.18150504,0.107353255,0.2303737,0.35310873,0.17415568,-0.17741622,-0.09937792,-0.11662502,0.6801127,-0.0795534,-0.22174902,0.089742586,-0.12334513,0.009684374,-0.13827285,0.06869489,-0.016824983,0.0656058,0.18173501,-0.05828175,0.08437198,-0.10809271,0.012657246,0.16863748,0.07973594,-0.016104039,-0.16950783,-0.09989635,-0.031171884,0.028337184,-0.19026789,-0.11942505,-0.29111102,0.06270014,-0.19258296,0.5329428,0.3329848,0.14219148,-0.2228718,-0.19499695,0.0016427791,-0.19124681,-0.07045078,0.16818215,-0.15825644,-0.0017017095,-0.24251185,0.2582968,-0.014931108,0.06700078,0.1263781,-0.008592862},{0.010483999,-0.21468592,0.18296377,0.29541266,0.18059264,-0.24414615,0.06532163,-0.0125220595,-0.31378254,-0.19564624,0.109734654,0.31461957,0.034738235,-0.18698145,0.090132296,-0.35579148,0.16909727,-0.006617118,-0.1312159,-0.42548355,0.11766671,-0.37661025,0.2885314,0.2258282,0.22451434,0.19642237,-0.21042183,-0.1308026,-0.033663794,0.27755785,-0.25711846,0.03342024,-0.34684786,-0.07886491,-0.041350484,0.06617394,0.02212192,-0.109729335,0.07643369,-0.021172231,-0.0012189104,0.11058479,-0.124457,0.20811181,0.15077867,-0.37664008,-0.12951331,0.27156988,0.125993,-0.27593023,-0.016013188,0.2651246,-0.16062677,-0.08800686,-0.21337706,-0.13860866,-0.013775763,-0.021510065,0.15111151,0.30960187,-0.02197419,0.1547907,-0.23995546,-0.12107908},{-0.23730078,0.50268257,-0.026111664,0.008389315,0.17302418,0.21704361,-0.6987137,0.07973842,-0.25608495,-0.037587877,-0.20837364,0.06846367,0.23011726,-0.108309,0.14528497,-0.18431455,0.014379909,0.12516783,-0.14733067,-0.15857129,0.23348668,-0.18625854,0.14086826,-0.13642414,-0.20805274,-0.14525577,-0.25346455,0.03704373,0.029742893,-0.112077415,-0.14275292,0.20063014,0.20417081,-0.10198229,-0.27099854,0.033370156,-0.22218774,-0.39016515,-0.13752775,-0.10843327,-0.2854174,0.08827047,0.2503539,-0.04048827,-0.08201976,0.34000453,0.14202337,0.0044131815,-0.050095852,0.02758477,0.17607163,-0.018223861,-0.06713618,0.20778717,0.16098443,-0.1669322,-0.06620406,0.035564717,0.055286363,-0.21637216,-0.15032421,0.21551703,0.1554857,0.115279175},{-0.09956393,-0.043679316,0.2427769,0.17263693,0.012156862,-0.03981002,0.20819066,0.20963089,-0.13678741,-0.20417874,0.11805862,0.27597347,-0.0026659465,-0.06793728,0.011879365,-0.19871913,-0.032348316,0.06732774,0.11361726,0.036615923,0.2549407,0.15891548,-0.0030715505,0.040454324,0.39892218,-0.14644451,-0.13306667,0.10800425,0.23756161,0.3845047,-0.27247953,-0.41297728,-0.043797597,-0.0858773,0.14106691,0.110738166,0.012916105,0.11286236,0.035549033,0.04321509,-0.18840227,0.3040911,-0.10775357,-0.31140995,0.25806066,-0.118689485,-0.06449991,-0.36627567,-0.2571691,0.10484131,-0.062267456,-0.35764322,-0.048348065,-0.163132,0.12214075,-0.31994113,0.26368377,0.23562405,0.051631283,-0.12740614,0.19367088,0.047178827,0.04511506,0.21800187},{0.026740946,0.49249482,-0.18126456,0.10976665,-0.053489175,0.05788101,0.20390902,0.017670007,0.103642076,0.08281107,0.20712797,-0.006477837,0.2222366,0.1876862,0.31072417,0.19668296,0.019942269,-0.20881839,0.18045865,0.050014663,0.17845051,-0.16129795,0.12162392,-0.027192531,-0.2561232,-0.19820008,-0.30937332,-0.56440616,-0.085774176,-0.19226557,-0.097718015,0.21383193,-0.16552018,0.04596956,-0.21697105,-0.031056687,0.06454651,-0.24513611,-0.2925033,-0.111966975,-0.07022314,-0.22479326,0.2271245,0.010679832,-0.18690023,0.38958022,0.1339845,0.3728791,0.26858595,-0.07104775,-0.14135312,0.21458405,-0.2033978,-0.12262296,-0.08409336,-0.1833197,-0.05132848,0.04512118,0.15088286,-0.014626362,0.29313987,0.088435106,-0.12337934,-0.19931768},{0.067705475,0.17589846,0.036157433,0.089697964,-0.17907329,-0.11633854,-0.029404301,0.018813584,0.03079587,-0.021004364,0.13007885,0.084962815,-0.23867775,-0.110807166,0.3518844,0.25683454,0.30230603,-0.06485021,-0.21356672,-0.3978486,-0.21651188,0.028116798,-0.04680578,-0.18284002,0.07464513,0.22997312,-0.01622538,0.021999568,0.081802346,-0.15126178,0.1444341,-0.1048818,-0.070891924,0.019805243,0.052212544,0.11027483,0.23976369,-0.1487267,0.034920096,0.09088712,-0.093742944,0.26581612,0.13511124,0.16868187,-0.099176735,-0.09681857,0.03328899,-0.5151298,0.28310046,-0.23376317,0.06569027,-0.030211298,0.018034652,-0.09532746,-0.03647544,-0.22183909,-0.19669907,-0.022874149,-0.23092164,0.4699343,-0.33519772,0.15225945,0.035606954,-0.13656019},{-0.058247022,0.017208131,-0.12775615,-0.08090614,0.0430814,0.12342865,0.6691816,0.10868188,-0.3846051,0.21731406,0.11657379,-0.3181753,0.083905526,0.3117834,-0.30829504,-0.08552118,0.0025446871,-0.19918478,-0.04468277,-0.18352744,0.058818307,-0.17858525,0.47368422,-0.34905344,0.12801488,-0.12620677,0.089136936,-0.007886967,0.006043022,0.18203157,-0.20888492,-0.24649714,-0.30115336,-0.17194548,-0.125039,-0.07827472,-0.21298128,-0.27703804,0.24178936,0.2524877,0.0313062,0.2861339,0.18737061,-0.28110787,0.25432113,-0.08937842,-0.10654093,-0.09791046,-0.25606728,-0.0905658,-0.039168216,0.20420802,0.33690965,0.03626209,-0.027501523,-0.59852874,-0.06068116,-0.17125395,-0.0678722,-0.019020045,-0.119839154,-0.094307095,0.21069871,0.09770111},{-0.13495125,-0.2502066,-0.09884833,-0.09753126,-0.2628003,-0.120658234,0.4111726,0.27704477,-0.095581815,0.39069036,0.08096497,0.3420759,-0.57504964,-0.056004923,-0.22243951,-0.020515908,-0.10302865,-0.12960349,-0.12836821,0.28890657,-0.06529091,0.29447803,-0.058205485,-0.4099834,-0.22941421,-0.25471684,-0.070119075,-0.3932557,-0.090254545,-0.15639505,0.10009424,-0.15929405,-0.13511008,-0.3181432,0.0027114497,-0.012025634,0.087401666,-0.11010858,-0.28728977,0.097659305,-0.061650854,-0.17214108,-0.09954205,-0.11794182,-0.3164744,-0.03320957,0.21388838,-0.2407981,0.10869889,0.15545523,-0.0051061222,-0.23913714,-0.11950815,0.12732041,0.12553647,0.11787317,0.2679766,-0.23646525,-0.11375888,-0.15516755,0.018879678,0.0514064,0.25758868,-0.2292151},{0.06057745,-0.06888994,-0.089968,-0.110208794,0.20054981,-0.04926568,-0.20726512,-0.07283294,0.062328536,-0.17445725,-0.086220816,0.12851776,0.24109471,0.083947815,-0.2376286,0.09460524,0.023427794,-0.053476345,0.12864496,-0.38787687,-0.1719797,-0.18950325,-0.043430816,0.14462334,0.19493741,0.10501427,-0.03865061,-0.08365635,-0.077314235,0.27685845,0.03542454,0.06394829,-0.21481529,0.07968425,0.039395377,0.15817188,0.013534955,-0.15500124,0.0068826135,-0.2072578,0.2749448,-0.07005643,-0.10579205,0.080412455,0.08869915,0.0042378223,-0.015028192,-0.07933932,0.26288062,-0.17495961,0.05011322,0.10209041,-0.070404686,-0.045445744,0.14289132,-0.2885188,0.010161334,-0.1094144,0.081827834,0.02698148,-0.22706854,0.07173354,0.17206445,0.08509251},{0.21067275,0.20082547,0.1267181,0.24261935,0.054973613,0.24012245,0.383119,-0.10555759,-0.32510558,-0.16171704,-0.22116208,0.10726507,-0.1323526,0.05715514,-0.1578955,-0.01026408,0.26297408,-0.3480571,0.02490323,-0.00889876,0.08848445,-0.3839453,0.37477583,-0.046520583,-0.15893094,0.3383724,0.009762791,-0.2904871,-0.059727192,0.18013689,0.08034803,-0.10581641,0.21398939,-0.27748907,-0.071931414,0.18904813,-0.22101095,0.22732627,0.014328445,-0.27497438,0.14504053,0.0015208955,-0.010992311,-0.19243002,-0.6022774,0.2124732,-0.005878948,0.31569105,-0.098364525,0.29085332,-0.00033971076,-0.0950151,-0.41368058,0.19299087,0.26174712,-0.11222937,0.21559638,0.32699206,-0.16335672,0.21326298,-0.4045601,-0.36781073,0.08274826,-0.0072001875},{-0.14466605,0.17540921,-0.33202523,-0.2403827,0.010083751,0.12662822,-0.6020952,0.070323355,0.20669521,0.37559813,0.21039411,0.021158975,0.070905365,-0.036416434,0.054348927,0.20220375,-0.15089858,0.11996908,0.14891405,0.3397045,0.39121652,0.10311239,0.0030144423,-0.2494482,0.10033185,-0.16549392,-0.20011044,-0.12500007,-0.007384488,0.23393333,0.19545901,4.9493774e-05,0.07214063,-0.2210608,0.30066973,0.08078328,0.09208256,0.0050226226,-0.061680596,-0.06032642,0.071889505,-0.120197,-0.027249495,-0.03103779,-0.2425364,0.0042977943,-0.26632905,0.5144069,-0.09292386,-0.015830586,-0.09377348,0.14997993,-0.16818559,-0.19183505,-0.0903774,-0.21122706,0.11430477,-0.18765001,0.01548649,0.11186734,0.27118883,0.3082771,0.011413598,-0.16491921},{-0.086415745,-0.20467669,0.16545431,0.09203055,-0.12630907,-0.47781542,0.0033889224,0.17574403,0.018869737,-0.03224217,0.47461084,-0.5254722,0.021891057,0.14900048,0.3886069,0.01680425,-0.19053306,0.5037733,0.18182096,0.03023283,0.08009253,-0.047694005,-0.16012628,-0.049960114,-0.58053166,-0.24073249,-0.15940855,0.17122261,0.05818791,0.10015133,0.1162667,-0.08904013,0.2702012,-0.43260318,0.5017668,-0.3056206,0.235987,-0.0023489576,0.16159578,0.45882607,-0.26066992,-0.20309362,-0.2575415,0.015911255,-0.030831818,-1.19605575e-05,-0.09423132,0.10162077,0.24038558,-0.112125516,0.045745425,-0.683069,-0.21427758,-0.44135162,0.08488735,-0.18400292,-0.26473776,-0.30822298,0.06148153,-0.17136092,0.0065683867,0.14406909,0.5373706,0.07125676},{-0.01671975,-0.01962441,0.09562783,0.16313739,-0.16477904,-0.2530617,0.40662315,0.087372325,-0.3965056,-0.10567803,0.02830196,0.0147496,-0.13594463,-0.109828934,0.07264213,-0.28867394,-0.08392037,-0.017072145,0.101481825,-0.21065967,-0.089145176,-0.18018554,0.15766267,-0.073138356,0.18420337,-0.041100416,0.21167366,-0.21261518,-0.19314063,0.08972367,-0.05208255,-0.076636076,-0.22152677,0.034523055,-0.049070746,-0.15362686,0.23767035,0.38828775,-0.14919429,0.19867474,-0.050649974,0.05112194,-0.14879434,0.09507404,0.24326302,-0.21147946,-0.269343,0.06616785,0.07587534,-0.04709263,0.033561017,0.14005555,-0.014073604,-0.27707767,-0.011825198,-0.07240119,0.18074006,0.0088768685,0.016501142,0.11614943,0.017950991,-0.15931731,-0.27152243,0.12282279},{-0.14226274,-0.28153324,-0.3882513,-0.08769401,-0.105558805,0.109066345,0.19409364,-0.19510397,-0.19230457,0.12103156,0.11021845,-0.035779636,0.22031924,0.1697066,-0.09944344,-0.20863163,-0.065644935,0.14682417,0.08951338,0.03988222,0.05212103,0.0713027,0.3902179,-0.13110504,0.2897144,-0.27749026,0.5050502,-0.106888205,0.096377745,0.09305597,0.06740975,-0.032802828,0.15095893,-0.05700351,0.13308711,0.14302415,0.16316544,0.22621316,-0.13308209,0.25752592,-0.15005316,0.16372408,0.027732724,0.20796473,0.050431695,0.111539975,-0.11639944,-0.24701586,-0.08681115,-0.18150465,-0.050196964,0.08438328,0.19071259,-0.0900458,0.20551921,-0.18925963,0.13162507,0.23786806,0.082981996,-0.104962245,-0.15103741,0.058802366,0.04632837,-0.17148608},{-0.076725386,-0.10660734,0.0053094937,0.1348294,0.19510417,0.02266181,-0.0222539,0.10539882,-0.3237534,-0.3602394,-0.00891981,-0.13215806,-0.20003147,0.107524194,0.15816866,0.1506132,-0.24995925,-0.04557549,-0.14659852,-0.31690803,-0.24665874,-0.018603608,0.12695786,-0.20393911,0.18119201,-0.24295832,-0.32586807,0.37269664,-0.12795639,0.13522713,-0.0758678,-0.40807417,0.07334147,0.18599954,0.12875026,-0.35758364,-0.25649062,0.1371769,-0.26134256,-0.21126217,-0.4486581,0.089893326,0.31614104,-0.2663946,0.19801678,0.05350757,-0.064595155,-0.32137242,0.027815033,-0.14604792,0.069222085,-0.24101385,-0.21688814,0.04850935,0.3886531,0.08025042,0.113906026,0.28031194,0.23306246,0.06593817,-0.49512038,0.342357,-0.43603483,-0.022659749},{-0.069075644,-0.24822147,-0.20631275,0.1606978,-0.053732898,0.3010387,0.17483073,0.2645282,0.12669784,-0.09405567,-0.1939816,0.009114081,-0.18390128,-0.07386866,-0.10410539,-0.20469594,-0.05362146,0.03273635,0.12288933,0.48085603,-0.1015926,0.17203115,0.21251999,0.14605772,0.0076267505,0.008596282,0.10895238,-0.07341525,-0.06666546,-0.27004606,-0.25524393,-0.20419359,0.10088405,0.096995085,-0.24430941,-0.008843583,-0.08328002,0.50150365,0.20251429,0.22680032,0.34859896,-0.17054063,0.030642673,0.12916736,0.20946962,0.11610467,-0.02032755,-0.3291605,0.37534422,-0.29186615,-0.29251793,-0.041230306,0.31422007,0.2011736,-0.26394933,-0.15222196,-0.2316748,0.12947157,-0.3040892,0.096714355,0.10580095,-0.2780247,-0.2210382,0.22278309},{-0.3108944,0.30124336,0.18755713,0.18566847,0.12896305,0.072277375,0.24063735,-0.06950214,-0.05048397,0.22560997,-0.28006324,-0.23212782,0.056817077,0.10614106,0.26019993,0.028744828,0.02284861,-0.11446267,-0.16614813,0.15257676,0.14956503,0.14440602,0.039788134,-0.1405646,0.19114514,0.05354909,0.04874692,0.18776341,-0.07196495,0.17285033,0.08016572,0.015075545,0.043447778,-0.21219996,0.012578157,0.3771752,-0.14306754,-0.30083287,0.13317148,-0.16564177,-0.100271456,-0.10205572,0.21395649,0.49748018,-0.034661174,-0.3207633,0.2336928,-0.35180908,-0.20905297,0.01693009,-0.12533006,-0.016895419,-0.085731186,0.17118198,0.08350444,0.204018,0.33051592,0.26095337,0.14377764,0.3613194,-0.1566764,-0.21994911,0.09320015,-0.16876368},{0.17380883,0.3173594,0.0498496,0.0059822844,-0.05091276,0.052108422,-0.0030037898,-0.16503781,-0.07676855,-0.1269696,-0.18726498,0.19359456,-0.06862096,0.13179563,0.05350159,-0.05425573,-0.09826255,0.10634486,0.058105625,0.27897185,0.004424472,0.14777125,-0.09699448,0.07059452,0.009285809,-0.023850704,-0.22208515,0.0055708983,-0.13119617,0.14196952,0.09689574,-0.14590256,0.30490926,-0.2553974,0.014656619,-0.04987836,-0.057168793,-0.04340256,-0.003074343,-0.14653084,-0.13505669,0.13487624,-0.13734311,0.19745782,-0.11056366,-0.044225924,0.04296903,0.19636473,0.11317365,0.15441975,-0.16420585,-0.13125949,0.16050358,-0.02778056,0.1383397,0.0015838203,-0.100261614,0.133646,0.26272902,-0.0038017838,-0.04549875,0.26471448,0.02305594,-0.032522455},{-0.3021366,-0.3206584,0.19090523,-0.16085927,0.10704646,0.24034347,-0.074875966,-0.27903032,-0.09892517,0.15080255,-0.28876412,0.050987408,-0.20258895,-0.30361968,0.06686743,-0.11484659,-0.14271022,0.20562276,0.08256897,-0.03707426,-0.25061035,-0.19862372,0.06481596,0.12947965,0.22378096,0.2345366,-0.046190646,-0.07262901,-0.012467698,-0.14716578,0.04380119,0.004799539,-0.068756126,0.019772623,0.23793466,-0.00246052,-0.07664153,-0.0097722085,0.09747656,0.101487026,0.035574105,0.07610178,0.21530496,0.13044839,0.14870235,-0.18245381,0.038987596,-0.56971383,0.17343105,-0.16010994,0.17773262,-0.059745178,-0.16995907,0.19463022,0.25122458,0.17447259,-0.13337284,0.16205624,-0.1267919,0.2180026,-0.14604124,-0.21473686,0.16943772,0.2637282},{-0.28418267,-0.18313403,0.034562282,-0.008278054,-0.08891058,0.09418038,0.1431096,0.13763018,0.09293685,-0.3741394,0.18182494,-0.117804885,-0.23664238,-0.14297666,0.044724684,-0.3130665,-0.06726313,-0.12195627,0.052833978,0.24859476,-0.12955943,0.0264504,-0.027549453,0.15943766,0.28086182,-0.09223882,-0.1078907,0.066138916,-0.23089671,-0.17609806,0.02746339,-0.043071616,0.074505,0.054107346,-0.034267504,-0.13684124,-0.094004214,0.2834898,0.11261562,0.32155585,-0.077190466,-0.06732444,0.06739232,0.3525042,-0.11253757,-0.08326423,-0.121042185,0.058029834,-0.25681725,-0.26304576,-0.10642999,-0.11112102,-0.06644847,-0.0073779835,-0.015836388,0.13935523,0.25577655,0.3615822,0.19793257,-0.23483889,0.16203943,0.020405306,0.13602725,-0.047171686},{0.32451195,0.19727771,-0.10116701,-0.17845152,0.15007961,0.23184936,-0.2462654,-0.018164355,0.099600255,0.28338966,0.20643528,-0.024196861,0.33575177,-0.1029188,0.13827236,0.016545719,0.15019563,0.22657315,0.16595033,0.1586852,0.42205647,0.24575047,-0.349013,0.22879137,-0.17560825,-0.20853853,-0.3221202,-0.18274926,0.0704564,0.19525068,-0.17144825,0.026457094,0.0103095,-0.083606035,-0.182936,-0.12659797,-0.040785838,-0.031126123,-0.09701523,0.14329179,0.16725901,-0.08224226,0.15548095,0.36534053,-0.62551755,-0.084792055,-0.13117936,0.17160827,0.021085132,-0.2150985,0.23323435,0.080600955,0.28791082,0.18507093,-0.08496137,-0.1098125,-0.19183418,-0.106202096,0.1120834,-0.021210764,0.29518872,0.28454548,0.22038388,-0.21639551},{-0.28973627,-0.062070593,-0.0682824,0.13856678,0.03155466,0.21280396,0.09399644,0.0792251,-0.13298196,-0.1801649,0.1586863,-0.17058007,-0.2095922,-0.25606373,-0.13062406,-0.30554578,-0.2344259,0.23950058,-0.05774447,-0.06039412,-0.41694453,-0.21749088,-0.096937776,-0.05848562,0.11370967,0.14434709,0.25949863,-0.031763695,0.007745148,0.16945003,-0.05258443,0.20598246,-0.20007956,0.21202166,0.11312062,0.012558817,-0.15398951,-0.016873533,-0.018435594,-0.23128459,0.0925919,-0.15145335,-0.15576737,0.08168012,-0.1833583,-0.036607377,-0.021069428,-0.36146647,-0.15273954,-0.11546349,0.081860445,-0.229882,0.30159372,-0.20128356,-0.08467337,-0.05651089,0.025455246,0.047225837,-0.11970861,-0.1124953,0.07556037,0.10861167,-0.260428,0.21580139},{0.01827283,0.35785776,0.16751112,0.04207634,-0.1785294,-0.064553596,0.0042902185,-0.065741576,0.38107073,0.24649957,-0.070583306,-0.028364975,-0.14015703,0.22924316,0.15646492,0.011096763,0.23677574,-0.08472789,0.2134212,-0.21047404,0.02068173,0.23542532,-0.30929488,0.118197635,0.17549065,-0.010277702,0.22134194,-0.22422996,0.03297288,-0.17566435,0.3169685,0.18809165,0.053164322,-0.3911782,0.10353615,0.1813675,0.18816791,-0.080420285,0.18291388,-0.055127647,-0.054258063,0.015635505,-0.28279164,-0.00988836,-0.18721864,0.32529122,0.08410786,0.08755032,-0.24246971,0.0073588584,-0.19859475,-0.035631422,-0.15526645,-0.021818858,0.021489281,-0.17314836,-0.16294117,-0.18246815,-0.25902578,0.23645441,0.26916575,-0.15806045,0.06145561,-0.05157736},{-0.38883477,-0.0265228,-0.31374142,-0.02611954,-0.03772388,-0.328405,-0.43251577,0.39552164,0.019472819,0.24059784,-0.0006842584,-0.03503779,-0.037692413,-0.11638884,-0.47943398,0.08401627,0.025650946,-0.1529601,0.012530329,-0.2859983,0.22278436,0.12400735,0.028075747,-0.17469098,-0.23002116,0.14250764,0.01212985,-0.29553652,-0.1791357,-0.23411183,-0.09391894,0.21627085,0.35459778,0.060982525,-0.055520494,0.15817167,-0.29995722,-0.16579893,0.1462212,0.16422105,0.26629773,-0.2777743,-0.22199434,0.14860485,0.3928258,-0.30251718,-0.19696029,-0.16735584,-0.3322024,-0.21479852,-0.018241888,-0.1685928,-0.40056896,0.24612564,-0.0091926595,-0.28974274,0.2379573,0.26686278,-0.48785853,0.30356857,-0.06084509,0.24645723,-0.044747606,0.09614458},{0.05262761,0.027879596,0.2764624,0.21767686,0.05287368,0.028346868,-0.10152012,-0.15966512,-0.13919596,-0.28272367,0.033027604,-0.06322259,0.17148109,-0.08445097,-0.13679186,-0.32839397,-0.04441539,0.11081536,-0.1677044,-0.29028708,-0.33835262,-0.18532197,-0.15155885,0.120992355,0.016585883,0.08273837,0.062069483,0.1979296,-0.07736231,0.21120393,-0.036645763,-0.17364654,0.023971068,0.14990227,-0.10925495,0.07342101,0.2188609,0.12318383,0.087857105,-0.18221718,0.014125497,0.07379879,0.18060999,-0.112316824,-0.008783112,-0.064205654,0.10183443,0.21027073,-0.17273962,0.21525042,0.1707037,-0.1492434,-0.08711739,-0.01152837,-0.21820617,-0.2044672,0.15948398,-0.0024220075,0.09578645,-0.05325826,0.10957529,-0.15463597,-0.33323812,0.3688462},{0.11986911,0.20120767,-0.04321433,-0.0170653,-0.077895105,0.14277558,0.029970866,-0.10998079,0.3516067,0.22453097,0.104448706,-0.26793718,0.06985597,0.03675754,-0.07550525,0.09818624,0.1181238,-0.15078454,0.032465596,-0.13649622,0.3394981,0.104144566,0.15392008,0.09864176,0.23426473,0.19390753,-0.007312174,-0.10445478,-0.08156547,0.026177965,0.042667493,0.09574031,-0.19191547,-0.3370613,-0.13195874,0.048005596,0.11933334,-0.032921053,0.20135516,0.09183371,0.26320326,0.13638133,-0.1678544,-0.1068628,-0.1472669,0.34123164,0.096683964,0.732914,-0.18453036,-0.0976677,0.13765801,0.019750265,0.07666384,0.19317411,-0.17127955,-0.05566847,0.07946207,-0.046235617,-0.074281305,0.21668674,0.13070883,0.27021602,-0.0828728,-0.14075105},{0.1863785,0.07027875,0.114931285,0.16803825,0.41529456,-0.09070531,0.09044681,-0.29818654,0.33738774,-0.21692885,-0.05383407,0.01705253,-0.29126602,0.07184528,-0.013455895,0.041558605,0.15682854,-0.22097284,0.09367727,0.45374444,0.115922526,-0.3639246,0.12681983,0.07509426,0.18680137,0.019533163,0.39702815,-0.46625197,-0.09511724,0.29728824,-0.062169917,-0.3104171,-0.12567662,-0.30846226,0.022866394,0.2106329,0.2200341,-0.050390646,-0.3036619,0.23059738,-0.020228228,0.16350777,0.07634228,0.29822022,0.040010832,0.016835526,-0.01122327,-0.5808784,0.25279343,-0.260835,-0.07169154,0.49053144,0.19582106,-0.14414297,-0.052373663,0.1892719,-0.16743712,-0.05014686,0.0722151,-0.108516425,0.33994406,-0.31651244,-0.40342027,0.108295925},{0.18158115,-0.09052755,-0.09685778,0.0057733473,-0.033615,0.20335343,0.30117768,-0.06617231,-0.22353783,-0.13057764,-0.23448592,-0.1353148,-0.10933174,0.17457981,-0.13619927,-0.1142899,0.28373775,-0.14812165,-0.119954094,-0.3599094,-0.23477735,0.16724536,0.06106938,0.023027541,0.303924,-0.022639371,-0.107491575,0.17594321,-0.18353678,-0.17969745,0.12077943,0.1482316,0.10644739,0.0042401105,0.031473488,-0.18303466,0.036147177,0.11751799,-0.06514214,0.2636894,-0.061026458,0.1490763,-0.45089662,-0.102899246,-0.1146112,-0.18371983,0.21165057,0.06841127,0.0027868035,-0.0763588,0.06340296,0.04441539,-0.29726952,-0.01300441,0.2280381,-0.11252985,0.21586868,0.37781015,0.031385556,0.23220652,-0.084915355,-0.28714895,0.03296269,0.27199283},{-0.19536792,-0.062581904,-0.04566972,0.0031512112,-0.3450261,0.19078214,-0.10916395,-0.022420317,-0.050685175,0.15285322,0.07397948,-0.002256174,0.036706578,0.22520572,0.14592394,-0.31131253,-0.1869842,0.22739038,-0.10505335,-0.32894465,-0.33824512,-0.049228787,0.22821648,-0.051271915,0.18168095,-0.22551265,0.35761935,0.015461287,-0.2986887,0.07308231,-0.018206455,0.26416972,0.42065376,-0.14289968,-0.17751142,-0.26846185,-0.23208682,0.24411735,-0.012246546,0.12493502,0.22478727,0.2610887,-0.29892027,0.5435062,0.0799057,-0.25320256,0.038543362,-0.09790567,-0.23423861,-0.008475095,0.25057933,0.22915019,0.0981616,0.11762003,0.10777207,0.029632077,-0.07441577,0.23206419,0.06414247,-0.007991598,0.19691041,-0.095049135,0.06038832,0.17641458},{-0.008169835,-0.008773916,-0.041389544,0.19970733,-0.13195163,0.0022393025,-0.18754344,-0.26355886,-0.02429777,0.024671746,-0.23475194,0.27792868,0.096321106,0.17830157,0.029025827,-0.21098591,0.05068598,0.008789564,0.14459033,0.22468099,-0.24482626,-0.273869,-0.16727948,0.12320379,-0.34077206,-0.1290527,-0.20382716,0.022968402,-0.09552385,0.007672348,-0.05785944,-0.10154055,-0.0026133459,-0.29768842,0.23419248,-0.07307694,-0.24812931,-0.16549426,0.24481308,0.18738142,0.055001926,0.15269047,-0.08877923,-0.013263171,-0.10176759,0.15975547,-0.055462867,-0.4548552,0.045472655,-0.07265899,-0.07774397,0.033062253,0.13735832,0.14606458,-0.16270842,0.19307055,-0.11869618,-0.1772298,-0.033078443,-0.30508667,0.13569227,-0.3158046,-0.07737824,-0.12444992},{-0.20383492,-0.5510384,0.019498972,-0.1058067,-0.25507724,0.006913033,-0.20161559,0.051564675,0.29129505,-0.26504678,-0.17219585,0.031135544,-0.28516373,0.18356696,-0.08841617,-0.2747801,-0.11940245,0.1794973,0.21240865,-0.3880291,0.1111505,0.13447863,-0.07177936,0.12907577,-0.030878149,0.07229265,-0.06334676,0.2496334,0.064740874,-0.2741436,0.13102823,-0.24951632,-0.08182227,0.0865745,0.051179104,-0.07567506,0.2802341,0.31229743,0.0017628198,-0.2232052,0.25078303,-0.020014701,0.19593054,0.23481075,0.36677065,-0.40566772,0.008646041,0.43108726,0.01630753,0.0007958474,0.43797025,-0.03563932,-0.121577054,-0.021316128,-0.16666101,0.10822737,0.20515639,0.047432777,-0.021811275,-0.114910826,0.14447513,-0.046406623,0.20123845,-0.10414218},{-0.05014511,-0.01581674,-0.03836953,-0.08570886,-0.03338159,-0.08102404,-0.057272922,-0.33300823,0.11131304,-0.14726678,0.08026958,-0.10543678,0.02440119,0.2861954,0.055795215,0.1320029,-0.1268369,-0.33749446,0.31384462,-0.3991019,0.39807427,0.34270385,-0.06227606,-0.2613996,-0.30590403,-0.16194518,-0.15540233,0.23049693,0.21200748,0.17513342,-0.13208695,0.039658494,-0.032620024,0.14122045,-0.18701133,-0.27564183,-0.121779695,0.041649405,0.031298958,-0.32505035,0.039575357,-0.19013408,-0.028771376,-0.54284453,0.27145627,0.25936252,-0.023128303,-0.46463796,-0.0050004134,0.3742986,0.2036525,-0.3770115,-0.05445364,-0.19655238,-0.022563614,-0.112147175,-0.06313797,-0.16514795,-0.35909197,-0.42829806,-0.096727714,0.31402275,-0.055430662,-0.37748477},{-0.1710102,-0.030511258,0.08369035,-0.006483208,0.04872558,-0.23633827,0.11259488,0.4012798,-0.19553265,0.37888297,-0.04816391,-0.07036198,-0.3856987,0.3582332,0.2149747,-0.1537451,-0.011345515,0.33224273,-0.04859181,0.17282636,-0.39680082,-0.57512015,0.23907657,0.2808772,0.33100498,0.11131156,-0.20448859,-0.22257929,0.24679975,0.17493543,-0.28996828,0.08547545,-0.1624708,-0.111226894,0.07129029,0.18793869,0.25014743,-0.13043237,-0.002999891,0.3300569,-0.47289586,-0.12662745,0.4457608,0.5593367,0.032061797,0.30476096,0.089433745,-0.755806,0.2832516,-0.3318371,0.18969819,-0.27841452,0.24926946,-0.2357804,-0.13389452,0.031528145,-0.04421924,-0.24902458,-0.22814693,0.22009172,0.3066312,-0.12371694,0.14340508,-0.19024695},{0.032147866,-0.091735944,-0.1948616,-0.039745864,0.19867899,0.05654041,-0.0011531204,0.18734474,-0.28494978,-0.13914065,0.052371968,0.16388774,-0.02455371,0.25607407,0.1728068,0.28076887,0.35563153,0.0707913,-0.1299385,-0.0022378392,0.11009388,-0.046631396,0.076464474,0.14410643,-0.023158416,0.18455939,0.14885564,-0.47714797,0.034443256,0.23495091,0.17098516,-0.2616608,-0.10266554,0.1346673,0.016021771,0.061137423,-0.21070941,-0.19545287,-0.29827735,0.23383337,-0.06859472,0.19187038,-0.056125715,-0.025693053,-0.026013931,0.2613652,-0.08263812,0.18959074,-0.24256888,0.20702806,-0.15502426,0.21940692,0.13068435,0.06289166,0.16187246,0.18925059,0.054108858,-0.17741883,-0.08880239,-0.1888471,-0.2086424,0.17313392,-0.20932423,-0.21485408},{-0.18372412,0.30598184,-0.047887325,-0.30429658,-0.045140244,0.17980744,-0.7629285,0.0052786935,-0.18240562,0.043090098,0.19480282,-0.075511955,-0.004356185,-0.27272016,-0.19450222,-0.091147915,-0.14009768,0.042547576,-0.120085925,0.08892797,0.36435863,0.23208466,-0.050057985,0.0033489624,-0.009406516,0.04432392,-0.29992744,-0.1381466,-0.080602504,-0.11220054,0.5145562,-0.1722277,-0.11018754,-0.21898523,-0.14539373,0.31553766,-0.04180939,0.32551914,0.10991935,0.01934732,-0.10244189,-0.072596945,-0.055505544,0.05209392,-0.13281117,0.16593468,0.013065743,0.20031652,0.040162563,-0.009922724,0.08959166,-0.15824254,0.06161895,0.061497822,-0.19373967,0.0061426107,-0.1556025,0.12639719,0.17471413,-0.24920574,-0.0793665,0.16666941,-0.13492185,0.073980644},{-0.2148388,0.06108657,0.08314606,0.06138179,-0.14272258,0.25149164,-0.15386531,0.2914851,0.2237905,0.008384935,-0.027179362,0.15561219,-0.12140707,-0.09993034,-0.034019176,0.008259142,0.12721354,-0.15081042,0.095791705,-0.23245984,-0.19561619,0.10219499,0.12332711,0.29218146,-0.22573107,-0.1549484,-0.08298911,0.1855643,-0.2671323,-0.42562556,-0.10387873,-0.14692442,-0.08161389,-0.035810087,0.040002875,-0.0076917363,-0.23731792,-0.09606891,0.15148759,-0.24231683,-0.008555383,0.12608698,0.32982266,0.37022063,0.2990422,0.36621374,-0.058095008,-0.37331378,-0.023628144,0.11318174,-0.19380614,-0.16096857,0.07404875,0.105090156,0.009495412,0.18163253,-0.17206304,0.2049714,-0.20846945,-0.13003647,-0.052631687,-0.33043522,-0.048768144,-0.016481172},{0.16757256,0.17523219,0.046880938,-0.086614594,-0.28804561,0.21581912,-0.006348379,-0.23227333,-0.26568195,-0.29438087,-0.21220897,0.29446727,0.0149260145,-0.09052909,0.13289167,0.091819294,-0.19495605,-0.17831506,0.15336567,0.040154405,0.17519124,0.22930805,-0.037871014,-0.33636189,0.22714864,-0.03924698,-0.31846365,0.21942587,-0.11306713,-0.05512088,-0.06780367,-0.3314128,-0.16486733,0.013853065,-0.121989325,0.1067961,0.38597628,-0.026935814,-0.33146873,-0.37370563,-0.026466895,-0.1685156,-0.42366105,-0.14675967,0.011958164,0.32632458,-0.1335825,0.25837645,-0.07012158,0.2832573,-0.28613696,-0.10695733,0.32337362,0.26758596,-0.20517243,0.034557812,-0.1405959,-0.1753394,0.057239458,0.07779137,-0.10968015,0.17992276,-0.11939658,0.113232054},{-0.014654251,0.07980238,-0.27528173,0.03262378,-0.021216044,0.11014341,-0.046252113,0.017578566,0.03330802,0.20924011,-0.12615365,-0.13134421,-0.12917127,0.3566497,-0.14311403,0.33789605,0.12353691,-0.20768481,0.13773218,0.16624726,0.25551337,-0.20571798,0.03200138,0.15043844,-0.0446208,0.16090144,-0.3926579,0.12374485,0.19271773,-0.11317992,0.06004065,0.08365596,-0.08025501,-0.16864899,-0.2108446,0.058582533,0.13021104,-0.06725133,0.006416976,-0.27349782,-0.12879716,-0.0009062558,0.31424618,-0.17714044,-0.033645514,0.18080188,0.2943294,0.15653656,-0.03699138,-0.1330336,-0.22780423,0.14623836,0.06436895,-0.18625507,-0.17277268,0.054341465,0.20860508,0.11937158,-0.09204532,-0.02206711,0.24863319,-0.013721213,0.06319709,0.15397938},{0.35703248,-0.23503107,0.20368929,0.010963338,0.1098473,-0.27594414,0.11942411,-0.21767192,-0.10652878,0.17469646,-0.099876314,-0.33668855,0.116918355,0.20240901,0.24050547,-0.08314633,0.2123771,0.2690123,0.1454803,0.18779352,0.055506412,-0.23159035,0.3339906,0.037133876,0.097172886,-0.16194822,-0.047335844,0.2202634,0.086580545,-0.07040241,0.03501171,0.0623839,-0.17905836,0.03780333,-0.08041713,0.26555148,0.1883964,-0.27446827,-0.13757356,0.0796265,-0.10666172,-0.38916776,0.37582922,0.14448075,-0.12003184,0.15679562,-0.010379376,0.005095444,-0.1100867,-0.07097031,0.020238852,-0.2866039,-0.15825409,-0.043769628,-0.12002524,0.09314092,-0.17861326,0.033186484,-0.15688327,-0.11514905,-0.29382846,-0.15999176,0.051964182,0.054638922},{-0.15099537,-0.09838441,-0.38522375,0.11122847,-0.18916923,0.022030512,-0.42074528,0.14198686,-0.06956865,0.09061204,-0.08205784,0.18219115,0.1839062,-0.41029888,0.047547918,0.23213813,0.062294394,-0.2273246,0.1586416,0.103976786,0.12703612,-0.11305786,-0.09331905,0.2249142,-0.1628756,0.3337024,-0.12466795,-0.14652717,0.03322881,-0.05445221,-0.13598551,0.14096875,0.015413315,0.048482724,0.24325807,-0.31382298,-0.08205497,0.007882059,0.03750672,0.06465862,0.11678375,0.1746862,-0.19591804,-0.22775877,-0.14491251,0.044107758,0.083718635,0.24798155,-0.05208911,-0.24459787,0.18304433,0.09682758,-0.15098482,-0.025866771,0.07058792,-0.06690985,-0.045218363,-0.3186243,0.016706096,0.029379131,0.18003428,-0.1177251,-0.12483421,-0.08472713}};
static const float layer_2_weight[64][4] = {{0.34417087,0.06626712,0.028201306,0.09645887},{0.3473469,0.2963686,-0.07693412,0.084428616},{0.20437697,0.15206687,0.19818583,0.059447497},{0.25777316,-0.013449844,0.19397564,0.1775466},{0.07730746,-0.15034832,0.25296563,-0.111014895},{-0.14497238,0.15576062,0.276845,-0.03444866},{-0.07081124,-0.0058347946,-0.04648073,0.14565103},{-0.27607512,-0.10931378,-0.2999993,0.018477295},{-0.059022073,0.28792873,0.07227607,-0.22504435},{0.03532308,0.13838366,-0.2160329,-0.012464004},{0.19507855,-0.22379652,-0.20479925,-0.22466972},{-0.19735265,-0.06663001,0.14756149,0.08562614},{0.03584487,0.1937381,0.15317407,-0.18326819},{0.098313995,0.21755752,-0.002213445,0.21058872},{-0.017094309,-0.1050561,-0.13839464,-0.14163233},{-0.16397838,-0.25908887,0.16607994,-0.2544986},{0.18061659,-0.08269587,0.34741962,-0.27655062},{0.2542927,0.26048058,-0.14392485,-0.09935028},{0.007697556,0.054190747,0.024961624,-0.038864397},{-0.28043076,-0.2533668,0.26825052,0.13040967},{-0.13205963,-0.37634206,-0.23251724,0.24162835},{-0.06279357,0.12991062,-0.26396716,-0.20655538},{0.06985562,-0.13604905,0.20141461,0.30753878},{0.10082315,0.01372743,0.20821953,-0.07445663},{-0.37774405,-0.13052908,0.14794411,-0.16580461},{-0.12387955,-0.054484226,0.14206341,-0.11979239},{-0.024750685,-0.13103354,-0.3919735,0.19814904},{-0.082687564,0.18271336,-0.013578745,0.02184801},{0.0050958386,-0.05729022,-0.04119484,-0.08481492},{0.40843177,-0.10062784,-0.085917085,0.17350073},{0.2148918,0.3324667,-0.25345084,-0.1415398},{-0.19867888,0.18434516,0.0012704604,-0.2325704},{0.28306386,0.20990157,0.0076300413,0.15510242},{-0.043097973,-0.15262988,0.32312906,-0.35119534},{0.17431098,0.1761777,-0.12927826,-0.0101219},{-0.042342376,-0.13833125,0.05214726,0.07373801},{-0.19817741,0.02252036,-0.32092452,0.0382917},{0.20320907,0.24635348,0.095776685,0.23113313},{0.04713191,0.18308958,-0.15247917,-0.04892302},{0.24990186,-0.009772164,-0.0413701,-0.096889295},{-0.2763459,0.22891103,0.16182733,-0.23239158},{0.111567706,-0.18991384,0.05981636,0.29593846},{0.11532437,-0.124134704,0.17287017,0.061144687},{0.0039374847,0.05561851,-0.0003044867,-0.21984883},{-0.16436194,0.08614028,-0.04193437,0.016303284},{0.1274677,0.15929675,0.23931599,-0.04749819},{-0.017218808,-0.0076010535,-0.0077579287,0.013445378},{0.08646194,-0.20486128,-0.1609781,0.1271326},{0.24473725,-0.33811563,0.004158396,-0.19879304},{-0.030769616,0.2507502,0.24704386,0.26784736},{0.042772904,0.3212628,-0.2157907,0.16438287},{-0.18758754,-0.13676308,0.11362799,-0.08317322},{-0.08472083,-0.20176683,-0.046565708,0.23841447},{-0.0761375,0.29320133,0.2283388,0.24678138},{0.18693392,0.20508665,0.0490524,0.094371945},{-0.36978388,0.105049804,0.27304795,0.13846569},{-0.21910006,0.110614374,-0.06858049,0.10190444},{-0.16421352,0.23952362,0.101889685,0.02737325},{-0.100363076,-0.22012877,-0.18201466,0.15007174},{-0.021133326,0.13065213,-0.19546846,-0.34808153},{-0.18305635,-0.17652427,-0.04483913,0.053643394},{0.31713083,-0.19909135,-0.30829373,-0.047113523},{0.0692753,-0.032581847,-0.22371952,0.14544514},{0.09643612,0.07179753,0.09805103,0.12722713}};
static const float layer_0_bias[64] = {-0.051470235,-0.8416223,0.16563255,0.10992234,0.44459736,-0.2357853,0.10438154,-0.16238092,0.75312126,-0.051255636,0.21773918,-0.26647487,0.37655863,0.06137951,-0.3978652,0.11499281,0.32224077,0.1957218,0.05125344,0.05916014,-0.2876647,-0.51118433,-0.12913245,-0.10738223,-0.22406976,0.4817116,-0.57857877,0.11805004,0.6310674,-0.14485139,-0.19216192,0.054211356,0.022928294,-0.1480233,-0.26543227,-0.011333552,-0.2731522,-0.67665803,0.13304588,0.2506445,-0.51633614,-0.3242339,-0.5187825,0.51685137,-0.17577524,-0.3428667,0.25969502,0.2561018,-0.05319303,-0.27760085,0.09987243,0.19308689,-0.17483743,0.002400643,0.31711283,-0.3779008,-0.45675305,0.5995085,0.25273976,0.84029466,0.5843472,0.7513632,-0.25590882,0.430423};
static const float layer_1_bias[64] = {-0.122478224,0.013842444,-0.053722735,-0.035453092,-0.16709417,-0.029369663,-0.16788185,0.05005848,0.124862365,-0.5532583,-0.014757668,0.065840274,-0.32990327,-0.065057606,-0.110357754,-0.054215617,-0.2225571,-0.032532163,-0.19022985,-0.039803356,-0.0060367663,-0.05360856,-0.09481754,0.091179915,0.24803384,0.071214825,-0.26061225,-0.2529116,-0.15339528,-0.16151853,-0.08480172,-0.2379065,0.051954962,0.13954064,-0.009563287,0.46840563,-0.1018188,-0.108291455,-0.08376071,-0.057185672,0.033549454,0.06990174,-0.22448905,-0.08042602,0.104242936,0.36145228,0.009198667,0.84200615,0.013732995,-0.02437076,-0.1290195,-0.05944182,-0.10450531,0.107361056,0.092236,-0.09398129,0.027149491,0.34642908,0.29776323,-0.06823738,-0.06263544,0.08168591,-0.2280474,0.1223797};
static const float layer_2_bias[4] = {0.0068984646,-0.15620036,-0.003308484,0.025152732};

	void networkEvaluate(struct control_t_n *control_n, const float *state_array) {
	
		for (int i = 0; i < structure[0][1]; i++) {
			output_0[i] = 0;
			for (int j = 0; j < structure[0][0]; j++) {
				output_0[i] += state_array[j] * layer_0_weight[j][i];
			}
			output_0[i] += layer_0_bias[i];
			output_0[i] = tanhf(output_0[i]);
		}
	
		for (int i = 0; i < structure[1][1]; i++) {
			output_1[i] = 0;
			for (int j = 0; j < structure[1][0]; j++) {
				output_1[i] += output_0[j] * layer_1_weight[j][i];
			}
			output_1[i] += layer_1_bias[i];
			output_1[i] = tanhf(output_1[i]);
		}
		
		for (int i = 0; i < structure[2][1]; i++) {
			output_2[i] = 0;
			for (int j = 0; j < structure[2][0]; j++) {
				output_2[i] += output_1[j] * layer_2_weight[j][i];
			}
			output_2[i] += layer_2_bias[i];
		}
		
		control_n->thrust_0 = output_2[0];
		control_n->thrust_1 = output_2[1];
		control_n->thrust_2 = output_2[2];
		control_n->thrust_3 = output_2[3];	
	
	}
	