
#include "network_evaluate.h"



float linear(float num) {
	return num;
}



float sigmoid(float num) {
	return 1 / (1 + exp(-num));
}



float relu(float num) {
	if (num > 0) {
		return num;
	} else {
		return 0;
	}
}

static const int structure[3][2] = {{19, 64},{64, 64},{64, 4}};
static float output_0[64];
static float output_1[64];
static float output_2[4];
static const float layer_0_weight[19][64] = {{-0.44715425,-0.42588374,0.4405663,0.1346376,-0.17187737,-0.07421259,-0.78739434,0.8275933,-0.013237267,0.10519446,0.7166133,0.18456855,-0.085666455,-0.37485084,0.24694835,-0.59791094,0.23630622,-0.98624825,-0.63139045,-0.09258728,0.06698913,0.3293801,-0.18527284,0.16363357,0.07028437,0.11822728,-0.0043620863,-0.20167841,-0.76754075,0.3107528,0.14571446,0.07856435,-0.6137944,0.26109025,-0.43059468,-0.11213903,0.655621,0.1323305,0.408887,0.0018627854,-0.13208489,0.5336502,-0.076549135,0.06979769,-0.07828896,-0.56174564,-0.08912899,0.24392235,-0.37738845,0.10715993,0.22129853,0.037329704,-0.6724681,-0.6543136,-0.06631416,-1.3549675,0.9057774,0.4366952,0.112292096,0.15051676,-0.41324198,0.036291778,0.26180857,-0.352806},{-0.88599586,-0.20167974,-0.34015566,-0.04839972,-0.5244314,0.4015292,-0.05137718,0.2571627,0.075803205,-0.25322148,0.6626768,0.013406564,-0.24101108,0.25960362,-0.67410576,0.31173024,-0.91413414,0.99920017,-0.77298063,-0.050087616,0.2921999,0.8874181,-0.29872265,-0.84721494,-0.21583138,0.20376088,0.17280965,0.7329216,0.7226526,0.7319095,0.34786767,-0.39771152,0.4496268,0.07825381,-0.32225463,-0.63186955,0.4972307,0.044390254,-0.8633982,-0.072378844,0.5079878,-0.42863482,0.57588714,0.36825913,0.64948857,0.7547059,0.14233615,-0.357586,-0.019831283,-0.89175,-0.030178558,0.13388878,-0.561344,-0.6859752,-0.23793788,0.066058464,0.7749644,0.1660676,0.40868986,-0.057410706,0.68744224,0.24859373,-0.22031423,-0.3219224},{-0.19062102,0.5612148,0.28421813,0.06641163,-0.08110752,0.761834,0.10692208,0.14936054,0.054421056,0.90788716,0.56188715,-1.2064742,0.49165952,0.051368322,-0.06162272,0.643675,-0.048130754,0.24586986,0.3595294,-0.24359943,0.3721963,-2.7325733,-0.34239617,0.41472968,0.11937828,0.17222212,-0.43228474,-0.29581612,-0.34544745,-0.008264908,0.34400916,0.9166502,0.33146465,0.029055323,0.22362901,0.1260269,-0.0044494662,0.13464963,0.29199716,-0.2713982,0.67238665,-0.30365214,0.6383491,-0.121319294,-0.106167875,-0.17663991,-0.06775014,0.32107762,-0.20694958,-0.029200424,-0.3701116,0.15737328,0.3002186,-0.22806956,0.53180677,-0.06016306,0.2003393,-0.40548888,-0.2968511,-0.11257681,-0.33617488,-0.016861958,0.4919041,-0.006581878},{-0.12692666,-0.2611525,0.03789035,0.2611835,0.32754365,-0.029554632,-0.7200916,0.5456676,-0.25240213,0.2621783,0.27126178,-0.055315644,0.6370428,-0.32379794,-0.28133073,-0.48430833,0.033985235,-0.18951394,-0.58878195,-0.3014016,0.12547341,0.15024525,-0.35108587,0.19676672,-0.39330646,0.2784884,0.10491468,0.023680467,-0.6800315,0.3272892,0.22111328,0.28381163,-0.47588465,-0.014961299,0.0017147672,-0.25257808,-0.2769783,-0.17561822,-0.4124981,0.118394956,-0.010800132,0.32547888,-0.3445417,0.033338718,-0.26597872,-0.4570934,0.19720905,-0.14861703,0.14374773,0.013265073,0.095554404,0.056875676,0.024426276,0.24851397,0.4083434,-0.2549306,0.5895774,0.13997301,0.12405749,0.3555948,-0.47868106,0.22151525,-0.023073552,-0.17116375},{-0.45488787,0.20453568,0.30357766,0.17345145,0.15283881,0.06575428,-0.1867629,0.07122817,-0.088722795,-0.33255574,0.5240978,-0.17646782,0.28821746,0.527603,-0.24701257,0.13875145,0.030297516,-0.04183434,0.11961113,0.10937277,0.08144747,0.4146278,0.07979136,-0.073022716,0.25069153,-0.05050571,-0.15212534,0.7679315,0.13724025,-0.016537657,0.34299934,-0.51153004,0.27706838,-0.24604964,-0.14814305,-0.05103871,0.2581968,-0.14412606,-0.01640227,0.28526896,0.12450838,0.40919372,0.6013541,0.42144662,-0.071277045,0.6179859,-0.13364492,-0.16180868,-0.12128281,-0.5875041,0.105918765,0.2827943,-0.43923405,-0.52720803,-0.37654138,0.29996803,0.43921378,0.052394398,0.37821233,0.26131272,0.5523835,0.3235304,-0.18107218,-0.044044092},{0.077067286,-0.047885787,0.19926433,-0.3629391,0.16191484,0.76790905,0.21126802,0.23857538,-0.13006318,0.27753776,0.38791668,-0.44958732,0.4200537,-0.28352967,-0.39297387,0.24161021,0.18031487,0.02840954,-0.19024207,-0.3118564,0.31672192,-0.74284005,-0.1845188,-0.021523628,-0.25638252,0.27328724,0.45465374,-0.27664882,-0.24084707,-0.42798665,-0.3412738,0.45027027,0.4884926,0.2598703,0.31386292,0.031269107,0.63187385,0.38302645,0.6464515,0.060598295,0.55285764,-0.2317012,0.3330669,0.14346872,-0.038543317,0.06470479,-0.042588945,0.009100212,-0.06476928,0.50167066,0.3222722,-0.22809258,0.20021768,0.23816165,-0.22464617,-0.042621836,0.113299675,0.013756929,-0.25421897,-0.28081006,-0.3337581,0.2819827,0.09619549,-0.1423421},{0.4970483,-0.690138,0.27405542,-0.053529557,-0.111628585,0.2467728,-0.09176179,0.15562396,-0.41731024,0.002240862,-0.033931684,-0.33244675,0.8415492,-0.089236565,-0.3380481,0.028154582,0.13287108,0.40755007,-0.042548917,-0.18033807,-0.22801337,0.29663005,-0.36735594,-0.011001326,0.25877118,0.036505576,0.41966474,0.07193481,-0.044849627,0.09238947,-0.89778864,0.5423564,0.064158484,-0.29155844,-0.32520512,-0.45205024,-0.6433502,-0.3628117,0.09266743,-0.13566259,0.11795052,-0.048312213,0.20298539,-0.12960225,-0.028120024,0.16840571,0.18731844,0.28894728,-0.28796268,-0.5235925,-0.48421147,-0.029625615,0.5400522,-0.09177408,-0.044369157,0.38096693,0.2784121,0.08212702,-0.08840614,0.10276748,-0.55180424,0.32998633,0.023704128,-0.148528},{0.023858255,0.12235281,0.1122205,-0.33645827,0.28846544,0.27738214,0.06514225,0.13518436,-0.31761497,0.13145258,-0.02236116,0.40090463,0.45614088,0.044016447,0.41552445,0.06772767,-0.14995314,0.3094015,-0.28581974,-0.1542269,0.7072981,-0.33607885,-0.38317835,-0.10573556,0.1340631,-0.4062293,-0.22504787,-0.3265209,-0.25051165,-0.026413044,0.3224713,0.04826175,-0.2797582,-0.050584298,0.20378125,-0.50300884,0.0378206,-0.03209635,-0.45531932,-0.23619169,-0.14590196,0.30937383,-0.0013924146,-0.06486193,-0.1345317,-0.08407524,0.1627986,0.2807844,-0.5001294,-0.28839824,0.1350537,0.044683922,-0.4849687,-0.3524395,-0.3131245,-0.0064587486,0.052656516,-0.14062308,-0.051209193,-0.014554023,0.46245286,0.82421386,-0.16225174,-0.2870342},{0.42655173,-0.19117092,0.3542562,0.3699292,-0.33383963,-0.73011917,0.034704316,-0.085234754,-0.364525,-0.02093948,0.6841712,-0.80158955,0.50168175,-0.87552094,-0.11298923,0.1613287,-0.6513626,-0.6228221,0.105790466,0.48385432,0.28065372,0.9311533,-0.007225569,0.91403174,-0.36719242,-0.23765753,0.20518944,-0.2277481,0.047621626,-0.5623639,-0.23460242,0.2676417,0.105929725,-0.0414394,0.17206237,-0.13796237,-0.1665718,-0.05471365,0.04002636,0.38155007,-0.30191538,-0.7637398,0.069905356,0.78798264,-0.07206241,-0.024765346,-0.6446221,-0.40236762,-0.7225807,0.40994227,-0.047087066,-0.019402334,0.5952966,-0.0023404462,0.08128231,-0.50833774,-0.31457528,0.3071047,-0.6267759,0.58239895,-0.1616176,-0.20508906,0.87825066,0.1646748},{-0.16358133,0.14904603,0.6277254,0.42893508,-0.12896013,-0.31960887,-0.1995773,0.3748339,-0.15516593,0.0025394785,-0.1842873,0.36651024,-0.4868683,0.53997093,0.5490204,0.1757482,-0.3434386,-0.24797048,0.24677949,-0.10996645,-0.38449553,-0.032428402,0.038376212,0.25837883,-0.37678117,0.6282928,0.13822389,0.11059765,0.2696718,0.19011426,0.3226455,-0.5053681,-0.4003237,-0.10383223,-0.030536428,0.24511221,0.0024097334,0.22110982,0.30250552,0.48711395,0.068537585,-0.37967575,0.530296,0.06415216,-0.38581824,0.12254748,0.11847446,0.4653586,0.3811172,-0.029849345,-0.3179478,0.040423043,0.36789924,0.8336483,0.28601673,-0.10161848,0.20227994,-0.52165574,-0.2610923,-0.022525597,0.17583495,0.60478187,-0.50639504,-0.45552695},{-0.16340208,-0.42728812,-0.04762228,0.33926988,0.20959207,-0.1101546,0.44927728,-0.10874469,0.06348392,-0.01799481,-0.028238146,-0.114061914,0.36625344,-0.05299388,0.20992212,-0.018490119,0.025873236,0.14968239,0.41240394,0.011273125,0.50453436,-0.09856235,-0.35915515,0.022355923,0.048805617,0.6744736,0.32416067,-0.16108629,-0.13754313,-0.08104379,0.45258835,0.1890946,-0.00059052865,0.08832737,-0.3339022,0.052252524,-0.7235145,0.10668661,0.14126219,0.013308467,0.028364649,-0.2266639,-0.24163933,-0.09265581,-0.18908975,-0.13370858,-0.29592106,0.18138279,-0.1541912,0.9171449,0.038027413,-0.19999889,-0.04524726,-0.25795364,-0.21568243,0.060574297,-0.27247933,-0.046354096,0.058795933,-0.35216457,0.21456897,-0.09487093,-0.12651141,-0.5493243},{0.04679599,-0.23380956,-0.046940252,0.3486956,0.006314286,-0.7136702,-0.95510596,0.2927529,-0.21923968,0.12813376,0.38950223,0.27426833,0.3888548,0.032631155,0.28226504,0.29085872,-0.7511801,0.49201217,-0.12552504,0.4532515,-0.63648367,-0.16151367,-0.88869387,0.31595245,-0.11776166,0.16391908,-0.71597505,0.65673786,-0.34124732,-0.03099775,0.9847271,-0.6804643,-0.26540127,0.15458392,0.2221536,0.2741869,0.9383593,0.059032004,-0.11922638,0.23421353,-0.20418009,-0.60569644,0.09660003,-0.24944977,0.21016297,0.78428763,0.07220119,0.2866723,0.68751687,-0.52373636,0.33995402,-0.44147974,0.21925586,0.7854378,0.46147004,0.14885327,-0.28985628,-0.38424292,0.23650667,0.14709821,-0.0093494,-0.54978323,-0.74045265,-0.1257495},{0.33129516,0.35959116,-0.098678485,-0.37319568,-1.1165569,0.5993006,1.0294352,-1.7397298,1.2958789,0.26670003,-1.4088149,-0.0775213,0.9536795,0.35378537,0.5011509,1.4234383,1.1987876,0.3199076,0.21465717,-0.39251122,-0.8258493,-0.50308394,0.2589598,-0.50968635,0.20434466,-0.2803604,0.21014176,0.055306606,1.2698436,0.5449551,-1.3997153,-0.020252604,0.99197084,-0.7636391,-0.4083461,-0.8691562,-0.65306073,-0.39812753,0.39742997,-0.3253896,0.5793235,-0.1723298,-0.41721478,0.7495836,-0.38177857,0.6046191,-0.28405455,-0.120370805,0.021328356,-0.45232177,0.6202381,0.6486589,-0.055794924,-0.246654,0.05893358,-0.046385486,-1.212546,1.0836147,-0.0980793,0.9015874,0.7586579,-0.36207265,-0.7417768,0.14670064},{1.3764268,1.2656213,0.23122235,-0.6593805,0.624948,-1.1776278,-0.54161304,-0.27859238,0.32220405,-0.6493774,-0.04638052,0.08935534,-1.4659687,-0.25702652,0.65691537,-1.040748,-0.65702164,-0.28830436,-0.2036059,-0.5767093,-0.36843583,-0.8365066,-0.10059254,-0.43727764,-0.6655445,-1.2534076,-1.5915638,-1.2475935,-1.0165894,-0.48928913,-0.23469184,-0.06967451,-0.8780788,0.008832144,0.12881315,0.294191,-0.87933004,0.22650364,-0.4387131,-0.59136343,0.5973858,-0.9199319,0.12409562,-0.5778972,-0.22568238,-0.4987922,0.63806635,0.014335362,-0.34117854,1.6176516,-0.58573484,0.80735147,0.40554368,0.3669721,-0.104560636,0.24736246,-1.3952516,-0.01394295,-1.2009635,-0.2725362,-1.1365918,-1.0366689,0.48339283,-0.018431995},{0.20584261,-0.057926867,-0.05416299,0.2967062,0.06054644,-0.5797367,-0.057264157,-0.11850977,0.20540403,-0.7859071,-0.056849815,0.26242906,0.34147495,-0.07039938,0.07490708,0.05029623,-0.25676516,-0.023106802,-0.235066,-0.30123547,0.34278142,0.1790291,0.1569705,0.11873515,-0.14960994,-0.2261396,0.23527734,0.43077272,-0.06526427,-0.10524309,0.012127828,-0.80268526,-0.37643677,0.17595063,-0.27064353,0.44657898,-0.23465027,-0.17167152,0.098235555,-0.39061138,-0.427554,-0.10917695,-0.34838724,-0.049907964,-0.26691455,-0.10345647,0.50718004,0.12793997,0.27435893,0.46035928,0.26806477,0.8488019,-0.26825178,0.010085918,0.059730865,0.37791798,0.006023692,0.08239808,-0.21856555,-0.33548835,-0.4792226,-9.847831e-05,-0.3771339,-0.26345575},{-0.112114996,0.13556638,-0.5605951,-0.38306797,0.63516504,0.36806607,-0.002552828,0.02138701,0.02672633,0.16541329,0.5277124,0.23112886,0.23458263,-0.1670588,-0.13575283,-0.13288997,0.54452777,0.22497596,0.56390375,0.009341246,0.05379594,0.056941535,0.074305706,0.12793246,-0.48965308,-0.104488075,-0.089672245,-0.5179343,0.05380467,0.15201265,-0.011456517,0.04575717,-0.014099016,0.17168146,-0.25281206,-0.4085481,0.5773032,0.08369147,0.10697897,-0.18940352,0.3338769,0.28413886,-0.2471435,0.4754326,0.120288655,0.11130939,0.51446193,-0.30005494,-0.06353874,0.35509688,-0.23181002,-0.3674619,0.16422518,-0.0801573,0.46574923,0.25959948,-0.2174634,-0.19683412,-0.22928424,0.35341334,-0.18819709,-0.39918488,-0.42726162,-0.041967906},{0.20172174,-0.3836158,-0.29890808,-0.03807807,0.2629744,0.2878164,-0.3146381,0.37581804,-0.22525673,0.17701714,-0.121530056,-0.15667753,0.21991849,0.29286277,-0.45597696,-0.24631065,-0.3473173,-0.143572,-0.2813387,0.0642561,-0.13377674,-0.13009849,-0.4338431,0.33444363,-0.30820984,-0.01397891,-1.0453429,0.05511539,0.065248124,-0.48570773,0.029175978,0.25561455,-0.10693174,0.2493602,0.24756944,-0.26254025,-0.07585701,0.18900608,0.54271406,-0.028958041,-0.3652487,-0.36670128,-0.2200641,0.099816464,0.049528994,0.022178307,-0.11725202,1.0180224,0.46277577,0.039711837,0.22357519,-0.21991767,-0.37200937,-0.12825929,0.45744538,0.5081274,0.30563667,-0.08072618,0.21411027,-0.07748249,-0.27855647,0.2969241,-0.19834533,-0.066177145},{-0.23813489,0.25034922,-0.21805248,-0.24465254,-0.20161176,0.088685066,0.065028735,0.014437032,0.1888816,-0.24693365,0.06938904,-0.3124384,0.023947075,0.34274906,0.013451753,0.20162338,0.088138156,-0.09788208,-0.14833634,-0.09366511,-0.20674825,0.045386344,-0.16542433,-0.76716703,0.49466693,-0.059636544,0.09001238,-0.18973757,0.15201966,-0.29233065,-0.32400775,-0.05020217,-0.08180727,0.63813394,-0.12353369,-0.08265011,-0.30477405,0.35009694,0.004666399,0.054691814,-0.2818054,0.16081668,-0.1661544,0.16947332,0.06542742,-0.13686,-0.040045053,-0.0309195,0.03858079,0.13184065,-0.37884292,-0.33951902,-0.12038176,-0.10666803,-0.50106496,0.2247062,-0.041401323,0.2690317,0.15485588,-0.2783335,-0.40446943,0.37734005,0.23559898,-0.10052897},{-0.15391254,-0.3435863,0.33681422,-0.28075266,0.022193287,-0.18543865,0.027572678,0.10763876,0.19116367,-0.34936017,-0.1498593,-0.21585068,0.24559498,0.14236575,-0.038608126,-0.003423972,0.16427717,0.09635937,0.12399776,-0.4827326,-0.04490533,0.023419037,-0.11169976,0.10249733,0.10076886,0.34336996,0.053237997,-0.20304695,0.052934173,0.25548813,0.108293764,-0.6892289,-0.051272474,0.3677544,0.30481192,0.112277105,-0.3647861,0.16025682,0.038864687,0.25063458,0.018054983,0.29769418,0.31878185,0.08651424,-0.46127784,-0.03028011,-0.072460875,0.26299894,-0.14554979,-0.041684493,0.32565835,0.23727612,0.5023768,0.17583351,0.12219123,0.11290636,0.067001,-0.044510406,-0.12588419,-0.23515522,-0.08880876,-0.13438791,-0.4378977,0.3026864}};
static const float layer_1_weight[64][64] = {{0.31996387,0.1776055,-0.31596482,0.019535335,-0.40229857,0.11656306,-0.11086845,0.13753478,0.25232524,0.30965632,-0.046442937,0.27677694,-0.09855201,0.049741328,-0.17287134,-0.13929297,0.14677013,-0.19780628,0.4740538,-0.051440835,-0.059752192,0.35871676,-0.17324999,0.16655028,-0.1982547,0.10954674,0.074004,0.4973331,-0.08821511,0.08806066,0.34490904,-0.24792518,-0.2815328,-0.199917,0.017071828,-0.350128,-0.11683835,0.07824981,-0.3343498,0.08527326,-0.14072643,0.07345775,0.39959177,0.31350347,0.07180712,-0.23769596,0.28464705,-0.25135255,0.23110086,0.30070817,0.13491592,-0.27442256,0.1285884,0.21352625,-0.13892177,0.08461655,0.023783745,-0.07804366,-0.18476897,-0.042231377,0.2573805,0.14445454,-0.21930267,0.1549922},{0.14966932,0.26666608,0.2984557,-0.009687553,0.090860456,-0.017926767,-0.0029350792,-0.13448253,0.23605998,-0.17359823,0.113541745,-0.10012213,0.20233984,0.15947752,0.05147475,0.2688545,0.042299602,-0.07715539,0.06269623,-0.26424176,-0.18036479,-0.0017328863,-0.21761808,0.09409539,0.28239664,0.022619864,0.20742634,0.34625536,-0.09272312,0.19954441,0.19702727,-0.0773064,-0.13591664,0.15375243,0.2606805,0.061152138,0.011860451,0.031283826,-0.113375776,0.18634628,-0.09442316,0.30134547,0.033495005,-0.13154945,0.009568374,0.06349482,-0.10758454,-0.26274276,0.123314604,-0.058842827,0.14444444,0.16956308,-0.14922279,0.04619944,0.23203988,-0.0032875184,0.005302035,-0.008753357,-0.07526917,0.17884405,0.11095941,-0.11004477,-0.07507557,0.013622671},{-0.09381487,0.12950094,-0.08946368,-0.10559207,0.09993374,-0.05474556,0.14686795,-0.08291432,0.018203385,0.26584107,-0.040919725,0.015744954,0.0016342748,0.008212658,0.239196,-0.07552358,-0.5377323,-0.05938488,-0.000714438,-0.048634395,0.03681655,0.14127368,-0.033764705,-0.13030058,0.2351669,0.6928118,0.1727714,-0.08424516,0.15867601,0.20066416,0.18002357,0.29672888,-0.109848075,-0.20943895,-0.06810658,0.26599362,0.14147937,-0.20785391,0.21264555,0.24504653,0.005696218,-0.19675764,0.08035525,0.33135083,0.016603969,-0.33954534,0.029422514,0.20937862,0.18271387,0.19217415,0.14736862,0.41209832,-0.19087644,-0.2565273,-0.012789976,-0.22453637,-0.1475842,0.59161186,0.25897896,-0.09488842,-0.0869367,-0.13979502,0.18444835,-0.13507669},{-0.017062409,-0.008668405,-0.1635636,-0.17155594,-0.27896065,0.10931446,0.08335532,-0.24933884,-0.20144707,0.12983935,0.15312873,0.07362954,-0.23106745,-0.0669557,-0.12232124,-0.20882319,0.24796845,-0.16815624,-0.012678094,-0.0055659,0.20825662,-0.077484764,-0.034571208,0.09319039,0.19109909,0.17307453,0.17137592,-0.15324268,-0.48765263,0.15859197,0.055350907,0.087866366,-0.013855166,-0.12974513,-0.10080116,-0.108408965,-0.21069077,0.12377381,-0.26234233,0.034243293,0.0885263,0.07593874,-0.22918956,0.123744875,0.19112407,-0.21498358,0.016848363,0.057115834,-0.22950248,-0.03932288,-0.099711314,-0.2190666,0.034226097,0.09661578,0.102497794,0.2000883,0.24059792,0.11659199,-0.14774753,-0.26537582,0.06622129,-0.027971288,-0.016302615,0.1764629},{0.060493574,-0.22001801,0.20683745,0.12509012,0.03673388,-0.38337725,-0.41393623,0.13764587,0.15283182,0.13626552,-0.10796796,-0.15859745,0.023921654,-0.36939707,-0.26823348,0.04785843,0.09528962,0.24749218,0.088635735,-0.088004075,-0.18343483,0.17601773,0.1209958,-0.32268432,-0.075008966,0.07537377,-0.22012436,-0.17144655,0.18579723,-0.23390307,-0.08374125,0.09742567,0.30272922,0.13848633,0.041014936,-0.16625123,-0.1193848,0.09592795,0.060187805,0.13911629,0.08723411,-0.02310674,0.3547914,-0.30099502,0.34031883,0.041246764,0.026605608,0.34494114,-0.13499857,0.025963608,0.23393083,-0.07353933,-0.27067462,-0.1350326,-0.047093473,-0.08163104,0.260891,-0.15758532,-0.010701067,-0.032217443,0.05142653,-0.04672847,0.28043836,0.03431168},{-0.25978196,0.0686264,-0.44108385,0.07992564,0.15630381,0.07985518,0.20239799,0.10028455,0.12671873,-0.038250122,-0.22456554,-0.0785252,0.17941226,-0.10559969,0.09178367,0.069683656,0.09212064,-0.23546551,-0.09785381,0.1104427,0.16040143,-0.01747182,0.17720713,0.27726564,0.12563182,-0.17828181,0.17510903,-0.008253565,0.11571114,0.118791305,-0.06309719,0.042689342,0.09101112,0.21498811,-0.16515134,0.19094399,0.081114456,-0.1951436,0.02477043,0.028273446,-0.10046123,-0.13584158,0.058726013,0.06831454,-0.019826425,-0.04660379,0.029248543,-0.050699435,-0.154573,0.029693251,-0.0019998658,-0.13019232,0.30287078,0.01677902,-0.18406896,0.6325765,0.0575649,-0.15317059,-0.010203873,0.08943133,-0.18781076,-0.090170056,0.26349905,0.0417684},{-0.24508551,-0.20171297,0.10061112,-0.060844585,0.31192932,0.15550871,0.21307705,-0.24299844,0.08851252,0.2420662,0.19566944,0.10568817,0.11986095,0.27766144,0.3252422,0.33073634,0.08210908,0.04285788,-0.4497763,0.09223255,-0.21329032,-0.020523148,-0.12585983,0.05080405,0.3278229,-0.38340718,-0.12137995,0.13823034,0.03724383,0.007203195,-0.0065321997,-0.13435909,-0.49915546,0.2569665,-0.16452062,0.12027943,0.21660423,-0.016386382,-0.22542934,0.13240056,0.46292347,-0.22996044,0.027148264,0.076518245,-0.22323717,0.21024609,0.24102452,-0.090382986,-0.20967947,0.0658367,0.055718444,0.06093616,0.3723159,0.12931812,0.20560448,-0.18699321,-0.15469785,-0.41340548,-0.14451265,0.07354062,-0.35068092,-0.25844848,0.20650078,0.30501446},{-0.10757175,-0.22029169,-0.07173953,0.1555082,0.047845826,-0.5447685,0.22470258,0.24566132,-0.40787888,0.099484846,0.19605942,-0.17902228,-0.2571887,-0.18943709,-0.13295083,-0.24134147,0.006286483,0.1874936,0.639842,-0.07844482,0.089882515,0.034685057,-0.03694614,-0.26539743,-0.2854927,0.00014752508,0.47736356,-0.18020071,0.11327392,0.4158268,0.13466394,-0.007863319,0.28422925,-0.31675497,0.2722873,0.5252185,0.33563405,0.22395205,0.30079135,0.09357532,-0.34928858,-0.012819749,0.08806742,-0.009257645,0.6095949,-0.07082414,-0.13876006,0.2075268,0.31962162,-0.14303334,0.25238192,-0.27956608,-0.08876216,-0.04953012,-0.08479029,0.2874258,0.3209081,-0.33344,0.3612237,0.06476477,0.3923172,0.37630922,0.43527052,-0.21109755},{-0.17428009,-0.20718133,0.17054611,-0.049635254,0.14608234,-0.01926116,0.11414754,0.13432144,0.07361335,0.121673726,-0.17626517,0.08536189,-0.1463522,-0.11168331,0.0027049994,-0.13518542,0.14026906,-0.014942049,-0.49241412,-0.00045925283,0.20774516,-0.055100612,-0.28981152,0.09461401,-0.13624534,0.0072811004,-0.19993512,0.104688786,0.034272384,-0.51014173,-0.020522235,-0.040170964,0.14150728,-0.12714444,-0.12007188,-0.09856976,-0.15161793,-0.15703343,-0.1352342,0.16492638,-0.07355954,-0.1523831,-0.1898533,0.073689185,0.083849676,0.002722077,-0.016898789,0.091333434,-0.04492936,-0.16587333,0.017668515,-0.08024109,-0.2197238,-0.23948455,0.015198607,-0.07027531,-0.16672935,0.04394673,-0.2916369,-0.10769919,0.03565192,-0.08441862,-0.30503863,-0.007972804},{-0.09888848,-0.28034115,-0.2919935,0.21361046,0.12973876,0.025529273,-0.2882032,0.10623445,-0.25839192,-0.048399024,-0.05934026,0.11391078,-0.09175332,-0.014426312,0.16169414,0.09022225,0.04060098,0.10760855,0.17005475,-0.043208253,0.04197741,-0.11069177,0.054559745,0.74644077,0.062504984,-0.060987305,-0.1167685,-0.18464257,-0.36535797,0.30232754,0.16521958,-0.39125448,0.02143193,0.11055443,0.10019383,-0.02651671,-0.20306215,0.13717075,-0.20217882,-0.23793322,0.025841314,-0.0014048005,-0.24594492,0.14273077,-0.15382388,-0.23838603,0.15604946,-0.07215872,-0.2021078,0.080548935,-0.21416308,-0.05724946,-0.101556264,0.31658146,0.020153508,0.47281227,-0.1516941,0.11494702,-0.019461477,0.119061045,0.06349182,-0.32713148,-0.043584783,0.07433276},{-0.13796979,0.02050694,-0.060342446,-0.11168461,0.1085639,-0.14679563,-0.16035736,0.05611485,-0.12995906,-0.21518074,0.00074822,-0.028147584,-0.25226167,-0.076031506,-0.096466556,0.09334274,0.2760806,-0.05105998,-0.021894654,0.19186592,0.33743307,0.07865871,0.00073267135,0.1833848,-0.13267514,0.0042601847,0.048131928,-0.14033093,0.034028966,0.38573906,0.19795023,0.06825824,-0.24151707,0.28887054,-0.17750356,0.15390159,0.20677584,0.051473375,-0.15208378,-0.26979104,-0.2252151,0.15396914,0.077359796,0.19798046,0.23026271,0.12582444,0.08319778,0.013574291,0.15578602,-0.040938832,-0.2561999,-0.10047329,0.23566462,0.2768483,-0.28487903,0.20462409,-0.11951351,-0.21813086,-0.09789641,0.034407087,0.18146229,0.23241065,-0.15282324,-0.007893466},{0.20812926,0.25315505,0.10454871,0.26746684,-0.27261117,0.22085042,-0.06881289,0.022929408,0.22106981,-0.07315649,-0.26911384,0.12794283,-0.08780879,0.45322022,-0.33835158,-0.21697754,0.121125095,0.33175763,-0.03905028,-0.36751947,0.034041908,-0.3058762,0.22010456,-0.041165616,-0.12899429,0.041040234,-0.12030903,0.08679506,-0.29524073,0.07291111,-0.334499,0.36578193,0.05156314,-0.39588088,0.36556152,-0.12319853,-0.20203583,0.16995066,-0.003213287,-0.15025112,0.38895422,-0.042392753,-0.07579938,0.26030737,-0.21092428,0.011151587,0.12049881,0.16074911,-0.3108847,0.2890271,0.35679188,0.1570392,0.15869449,0.35723916,-0.33211064,0.1289572,-0.056860793,-0.28592685,-0.3895062,-0.2108236,-0.39882132,-0.3207955,0.28669718,0.16026346},{-0.04682572,0.06572784,0.028622339,-0.032130294,-0.0046255374,0.14188026,-0.08840141,0.19748618,0.09856811,-0.23552383,-0.3049822,-0.22610481,-0.027358752,-0.18943492,-0.06590206,0.17040613,0.15000837,0.10886164,-0.46375132,-0.014900843,-0.21012297,0.048956,0.26475096,0.21542007,-0.118518956,0.032976326,0.17755696,-0.0073807607,-0.12719108,0.014690921,-0.31542313,-0.06398498,-0.09050931,0.12654828,-0.102107376,0.13810977,0.42974594,0.07145194,-0.10211678,0.31856087,0.1362546,-0.19941613,-0.1235266,0.117047936,0.2291926,0.12492382,0.3982151,0.13753863,-0.15296622,-0.075641334,-0.08700733,-0.2306396,0.24592443,-0.09604187,0.0040499126,-0.06910251,-0.19607136,-0.07239201,0.040115796,-0.20145284,-0.21995968,0.13964222,-0.30931568,0.16139328},{-0.08435502,-0.090539545,0.20073693,-0.15680566,-0.25757173,-0.03395589,0.2428166,-0.13979879,0.26318267,-0.054119494,-0.09757201,0.12431027,0.2809877,-0.25333425,-0.059723698,0.15986085,-0.15329301,0.25998223,-0.080345,-0.2828538,0.12658215,-0.22249101,0.12223498,-0.30927935,0.05606087,0.07767528,-0.30779693,0.08675096,0.0163465,-0.2833635,-0.083321325,0.049724396,0.13226688,0.10974964,0.11408448,-0.10651089,0.22753507,0.22465451,-0.08469005,0.24035549,0.0042699478,-0.0073889922,0.1680245,-0.06071279,0.028066384,-0.00032462858,-0.13839705,0.010746261,-0.06805033,-0.056892313,-0.048458226,-0.1521371,-0.10414445,0.005348872,0.15153772,0.107284114,-0.023015322,0.28708586,-0.22135563,-0.24521482,0.014300886,0.30667108,0.11278728,-0.042234585},{-0.100276336,0.095751524,-0.17071836,0.02506879,0.06304548,-0.020320615,0.2060534,-0.2048388,-0.041172713,0.04119476,0.44835618,-0.007135529,-0.22023584,0.11622639,0.17415193,0.071780324,0.0102830995,-0.14002931,-0.18067947,-0.23430356,-0.16336483,-0.15586293,-0.22119966,0.11894394,-0.19874465,0.23482631,0.117342964,-0.23985176,-0.22910082,0.15356755,0.03738641,-0.29802382,-0.30075276,-0.23026535,0.25291756,-0.27386886,-0.17444485,0.047846664,0.20157741,0.297914,0.224561,-0.15513529,-0.322649,-0.091115594,-0.06823076,0.12146652,-0.21120375,-0.06945918,-0.056374002,0.030116247,0.15658502,0.0062998803,-0.28084612,0.16356638,0.108999014,-0.07423831,-0.14443703,0.18162377,0.19002758,0.14352457,0.014103891,-0.047372553,-0.30377093,0.1984695},{-0.27814585,0.048151363,0.32324046,-0.24255082,0.2847236,0.17878275,0.057555713,-0.108404115,0.26539245,-0.023395086,-0.20166829,0.3791752,-0.017862469,-0.24353413,-0.115279965,0.15955967,-0.30705243,-0.21800636,-0.023670949,0.12536867,-0.3897624,0.27266997,-0.13996929,0.1415042,0.31471083,-0.03648162,-0.029892938,0.34606212,-0.029551035,-0.29307124,-0.30863878,-0.78059536,-0.016071737,0.31552804,-0.2783319,0.09752576,-0.22799219,-0.0012050846,-0.3084329,-0.2014368,0.10356933,0.2736444,0.24566521,0.40545782,-0.068803355,0.22679593,0.31832936,-0.5652694,-0.0007839622,-0.12563984,-0.30193627,0.20468457,0.15897985,0.04324355,0.3553396,-0.2733313,-0.28417864,-0.024725629,0.14480746,0.2509208,0.24729536,0.23025198,-0.191887,-0.21930805},{0.38129303,0.22646411,0.08815208,0.050689057,0.12013788,0.04251929,-0.3850168,0.32261392,-0.068172276,-0.09953138,0.29621673,0.15245752,-0.34998432,-0.03758484,0.1851774,0.23800473,-0.22740318,-0.1568656,-0.6554907,0.27064744,-0.18288678,0.27155176,-0.086559236,0.13128108,-0.054898806,0.2051794,-0.10844465,0.076277845,0.056514584,0.23879328,0.037139416,0.05979878,0.13883722,0.058021553,-0.049767382,-0.10564107,0.23272377,0.12906231,0.36699015,0.05880212,0.12646632,0.075687654,-0.08312826,-0.057662666,0.33755872,0.1407408,0.06509058,-0.01337569,-0.055321734,-0.15649253,0.13732006,-0.011934707,0.069796935,-0.14777754,0.09819742,-0.060029022,0.10046501,0.20330952,-0.017006762,-0.16825357,-0.22945692,0.105906874,-0.124727875,-0.012514605},{-0.077992074,-0.2851599,0.12889995,-0.11390615,0.08891087,0.24175835,0.121583305,0.2167158,0.025830263,0.13074939,-0.29047436,0.009574459,0.26080045,0.28049287,-0.035461407,0.10551392,-0.37551212,0.05363837,-0.1715115,-0.21166627,-0.040951706,0.0948156,0.145452,0.12959656,-0.25026083,-0.30506903,0.11115217,0.08558701,0.3033411,0.12609503,-0.121519424,-0.07056122,0.25111568,-0.13495827,0.12346897,0.014954174,0.23438941,-0.050597075,0.047478635,-0.046936914,0.15896378,0.14975365,0.24209026,-0.19664839,0.14235103,0.027832631,0.13318901,0.19999382,-0.08353093,-0.17387658,0.0666107,0.30948442,-0.01443988,0.060141925,0.25587618,-0.093539834,-0.20145956,0.1353734,-0.044197366,0.07735004,0.12135115,-0.059648547,-0.14281799,0.08739898},{-0.11570643,0.20301329,0.18880226,-0.06833847,0.055466905,-0.026832905,0.015846157,0.3123769,0.020309137,-0.15015663,0.34534222,-0.070456885,0.18925723,0.14076848,0.14888874,0.14040549,0.15433916,-0.09694384,-0.007703155,0.15601274,0.08581409,0.17358188,-0.20540135,0.4233142,0.17616642,-0.16819455,-0.039543673,0.26858577,0.08436289,0.22940575,0.008654039,-0.31608805,-0.17367238,-0.20165369,-0.24160832,-0.025722066,-0.17423713,0.14493503,0.06375375,-0.26902282,0.0226961,-0.14567228,-0.08227892,-0.18251286,-0.47050563,-0.06598589,0.16726981,-0.062743336,0.029818377,0.11932104,-0.16710427,0.16989928,-0.07001423,-0.09506056,-0.06625486,0.17881286,-0.024668943,-0.27720395,0.024006495,0.24109586,0.13295907,0.21999909,0.22685814,-0.17684875},{0.08685873,0.20906086,-0.22820915,-0.08426525,-0.19225043,-0.0947969,0.24755278,0.26280388,-0.26101267,0.14373639,0.031134835,-0.2230653,0.01892453,0.095642984,-0.025860082,0.04606632,-0.08324338,0.041865654,0.20899244,-0.29671934,0.14660552,0.2752479,0.017853562,-0.053697996,-0.24069682,-0.09400456,-0.049260583,0.22903597,-0.042935323,0.08142838,0.10229867,-0.4165311,-0.28481075,-0.16338788,0.010990943,0.006478072,-0.04696121,-0.10295233,0.02458955,0.18047523,-0.0956149,-0.26759896,-0.20236602,0.022146301,-0.042523436,-0.016828872,-0.026443813,0.21966732,0.06441715,-0.13830392,0.13718612,0.05248452,0.18932247,-0.04069254,-0.13125853,-0.240075,-0.015122966,-0.27026144,0.16994153,0.09204366,0.11391035,0.0923633,0.1848158,-0.062587105},{-0.045114014,0.14022,0.35379732,0.2981222,0.25165722,-0.21496673,-0.058938287,-0.12371684,0.018765839,-0.075455055,-0.09708658,-0.040268652,-0.11811767,-0.09887469,0.10330655,0.020543585,-0.20166823,-0.008240819,0.06342663,-0.2295899,0.07191302,0.034823462,0.010777668,-0.29594156,0.11191069,-0.121632606,0.1439129,0.24115194,0.33529603,0.09518309,-0.015857518,0.00073111954,0.10471855,0.08531728,-0.026035046,0.08666687,-0.028278178,0.14157495,0.18328238,0.1025545,0.110575266,0.29893005,0.030452479,0.107134804,-0.24629004,0.057439614,0.23099335,0.0024365676,-0.16084789,-0.16846344,-0.21180367,0.12186313,0.20303881,0.06646505,0.44286346,-0.12411625,0.18223745,-0.014557947,0.11751745,-0.09837448,-0.10768506,-0.019962946,0.15414718,0.22985925},{0.28882465,0.5021011,0.030289488,0.5011387,-0.20218027,0.15214606,0.15759592,-0.15428068,0.1922284,0.21850258,-0.059877463,0.019284653,0.0038303665,0.31068686,-0.25072318,-0.3302028,-0.21629356,0.11271995,-0.056822207,0.0788036,-0.085436545,-0.46467403,0.40394425,0.07433907,0.15478164,0.045103997,-0.056315947,-0.29538792,-0.19329724,-0.023590226,-0.3587489,0.33763167,-0.119524725,0.21001135,0.31633115,-0.25158387,-0.14934628,0.29638967,-0.13095242,0.07078083,0.09712973,0.5168948,0.08413483,-0.19128245,-0.2876117,0.3018496,-0.2643074,0.14677611,-0.32521424,0.24939193,0.2511557,-0.07962829,0.24976376,0.04170875,-0.024500411,-0.09911223,-0.058276556,0.36188346,0.020344116,-0.34631297,0.07326374,0.16632953,-0.105137005,0.49807253},{-0.2210084,-0.021963196,0.04936061,-0.0053343107,-0.5026081,0.32744393,0.19720003,0.1437986,0.16837886,-0.22186746,0.1487728,0.091767564,0.3527568,0.08152961,0.19345342,0.15917236,-0.07192953,-0.083147556,-0.31331968,-0.21745446,-0.07799643,-0.052374728,-0.008630406,-0.06847389,-0.44005224,-0.09837169,0.21614805,-0.3953955,-0.04591789,0.40124038,-0.13994929,0.24499583,-0.3369418,0.27068928,0.04525334,-0.21352127,0.18263967,-0.35938072,-0.25751513,-0.051184412,-0.13515198,0.07855483,-0.17674452,0.08744249,-0.20647258,-0.17044134,0.10137863,-0.116362125,0.16084217,0.28415403,0.14933716,0.060511038,0.085760206,-0.027495664,0.33024392,-0.20420703,-0.3372047,0.011602231,-0.005784364,-0.08488003,-0.044240896,0.014155596,0.2744843,0.08163446},{-0.17746411,-0.18201803,-0.20744298,-0.10336119,0.07138966,0.10790269,-0.17801389,0.29582363,-0.037912156,-0.12076575,-0.11047536,0.16811056,-0.06381565,-0.10206803,0.06626333,-0.30446357,-0.13080569,0.09050374,0.21298227,0.33946323,0.0015385207,0.33355704,-0.2510725,-0.13196857,-0.27126208,-0.09529531,0.00058155035,0.17767772,0.16733304,-0.02437278,-0.28596178,-0.06564084,-0.28778303,-0.19736166,0.021308541,0.074190855,-0.13777587,0.13495812,0.37693894,0.22756599,-0.06936358,0.07063223,0.32607263,0.08435958,0.08100471,0.009668382,-0.1085762,-0.1980473,0.2895952,0.21175708,0.37220696,-0.08432989,-0.023293644,0.17489043,-0.26410672,0.01906119,0.01098357,0.11426118,0.21575561,0.08640695,0.035728097,-0.081295654,-0.012445271,-0.5373855},{-0.14216721,-0.027068213,-0.009238265,0.09840418,0.018936617,-0.003951496,0.06388056,-0.21795294,0.012468793,-0.22870159,0.009138879,0.25305635,0.3036365,0.34153327,0.32667503,0.17244448,0.1407084,-0.120122425,-0.2182259,-0.0077510686,0.12842925,-0.2781489,0.021043181,0.5603995,0.008981537,0.107798554,-0.013935839,0.077415325,0.015880374,-0.09233569,0.10518227,-0.23014939,-0.15402672,-0.14296234,0.038996,0.10455726,0.043239847,0.008999163,-0.2981989,-0.03607182,-0.14874241,0.13172661,-0.23662338,-0.4499788,-0.24738708,-0.06230007,-0.10484062,0.10810738,0.19754097,0.0065054367,-0.041629795,-0.08473525,0.09550765,-0.17869076,0.06926033,0.014793826,-0.24713974,0.6641949,-0.059821505,0.21143061,-0.10534327,0.13034458,-0.042515248,0.096850395},{-0.028927203,-0.34920597,0.20745185,0.24957962,0.01505825,-0.20101538,-0.011028209,-0.26149818,-0.1429876,-0.100160725,0.14799312,0.28752667,0.023488637,-0.114674546,0.009309232,-0.055655055,0.1601998,0.049032766,-0.08432602,-0.07382564,-0.12988447,-0.084174454,0.12736456,0.6748432,0.13924648,0.43932524,-0.1046871,0.138163,-0.24912803,0.10403759,-0.07256219,0.1336084,-0.41252688,-0.15279484,-0.039851498,0.12327406,-0.04246182,-0.16905057,0.029157689,-0.09301537,0.038402382,0.238506,-0.09883095,0.1642429,-0.06674225,-0.09897348,0.027971772,0.115527794,0.07548056,-0.16267432,0.04795227,0.27746403,-0.0043883594,-0.005398828,-0.19546773,0.4194653,-0.054241765,0.025916671,0.18742031,0.1359093,0.09321395,0.15525423,-0.015815875,-0.04441635},{-0.18674843,0.43192378,0.20956361,0.03466789,0.111512385,0.19258662,-0.12442233,0.05928314,-0.12385546,-0.16458876,0.17123458,-0.06880493,0.17649963,0.109195165,0.1928188,-0.12664588,-0.16386612,0.12724055,0.13434793,0.038127314,-0.031513978,-0.03863682,0.21418731,-0.55529565,-0.18766071,-0.15079314,-0.11606858,0.17441863,0.115121596,0.1050476,0.1377812,0.40106916,-0.03672724,-0.16399656,-0.16831115,-0.01780254,-0.12573351,-0.12446591,-0.27952945,-0.12119111,-0.028965427,0.30896232,-0.077846356,-0.10672395,0.10619323,0.07777992,0.2249091,0.16065848,-0.06610301,-0.071436025,0.2696205,-0.12753959,-0.08580294,0.23334461,0.085346356,-0.35778892,-0.3076454,0.10648267,0.123267256,-0.1868331,-0.24192663,0.1703102,0.486522,0.49705574},{-0.13323338,0.10761295,-0.17486548,0.094611235,-0.22814924,0.15569267,0.6310845,-0.09806757,-0.39041358,0.23189674,-0.09281807,0.30728012,0.07154052,0.23462865,-0.15790178,-0.3341961,-0.24993776,0.18094221,0.32837132,0.2342947,0.3003933,-0.21704637,0.22949442,0.006879878,0.33965713,-0.39799127,-0.34907544,0.08375098,-0.05325801,0.044545155,-0.64672846,-0.13495247,-0.16566561,-0.06541385,0.09095539,0.27916825,0.072229534,-0.029527895,-0.33719042,-0.3378492,-0.36307475,0.019448215,0.042812377,-0.37467653,-0.28364733,-0.2832371,0.24957481,-0.15477175,-0.22138019,0.4274708,-0.19786392,-0.17028286,0.17730151,0.059555087,0.073267534,0.040517032,0.35583952,0.1251074,-0.26081485,-0.43410343,0.25242975,0.06027145,-0.28652623,0.3685596},{-0.03624555,-0.015501446,-0.2216436,0.115082934,-0.14001611,0.44128734,0.008567015,-0.10086086,-0.11260514,-0.1020553,0.054142382,0.055136513,0.18550223,0.22992828,-0.12751979,0.09988417,0.059237476,-0.20892383,-0.01043972,0.13568136,-0.13009684,-0.2106146,0.24628487,0.25754634,-0.21945001,-0.35939196,-0.4351483,0.05409322,-0.16612393,-0.3276001,-0.28775355,0.21393567,0.13817507,-0.059574254,-0.30574542,-0.19748299,0.05477116,-0.12162796,-0.11860357,-0.30858168,0.13077584,-0.15545751,0.20863074,0.019927893,-0.3955394,0.2813284,0.11885575,-0.15348952,0.28768528,-0.023468204,0.001158783,0.044829164,-0.31314573,-0.21987174,0.08006535,-0.22465879,-0.11121763,-0.03177869,-0.24838535,-0.102147795,0.073780365,0.04350342,-0.4059915,-0.0012944783},{-0.056759544,0.06890574,0.08842539,0.042980477,-0.22169252,-0.08636584,0.09296802,0.062008508,-0.25599477,-0.29390526,0.009807004,0.11128109,-0.15977998,0.080641255,0.2695465,0.3509476,0.14513835,-0.08701315,-0.32968873,-0.27204505,0.26479912,0.013064839,-0.17544444,-0.25372916,0.022065202,0.097143926,-0.054755326,-0.1790936,0.07500328,-0.120321095,-0.24900249,0.12551513,0.10415221,-0.268135,-0.11838065,0.07786005,0.2617882,-0.13257755,0.1253543,0.13168786,0.10079602,0.23825495,0.010903313,0.26776084,-0.085369095,-0.11208147,-0.01127807,0.054866776,0.032102957,-0.13071413,0.004366689,0.3514607,-0.17830886,-0.096868426,0.17244597,0.08547863,-0.20024137,-0.18434404,-0.07275476,0.09924464,-0.09650497,-0.07538682,0.115209185,-0.23920518},{-0.18414448,-0.08021602,0.093502074,-0.08289504,-0.0069876355,-0.022219628,0.28452125,0.12206467,-0.23606601,-0.43791565,0.14038262,-0.13498114,0.13539897,0.10712928,-0.16651218,-0.12736972,-0.1329284,-0.18167998,0.02422807,-0.4201561,-0.12140634,-0.13614327,0.17736445,-0.61257595,0.1498698,0.103076786,0.1543355,-0.2171223,0.21481414,0.017903626,-0.29852363,-0.027240952,0.09141421,-0.30076683,-0.16118185,-0.17686181,-0.095766135,-0.1751795,0.25684857,0.3139358,-0.07437788,0.08939332,0.3320945,-0.30261582,0.18054315,-0.24860494,-0.31511796,0.11833319,-0.038253658,-0.061972786,-0.11586149,0.14769106,0.15157701,-0.0012262315,0.20862208,0.018451517,-0.033955533,-0.2754707,-0.17799725,0.002248554,-0.10955983,0.13829815,0.16558166,0.027640251},{-0.13482384,-0.26852533,-0.05367237,0.06872923,0.028381497,0.033220056,0.13287443,-0.056195654,0.18549536,0.22938398,0.030377753,0.21784626,-0.15794118,0.074027315,-0.16826978,-0.17402631,-0.0862684,-0.118496016,-0.018179392,0.071745135,-0.038914517,0.21121326,0.13411757,0.21636067,-0.2231252,-0.15477344,-0.20034696,-0.1842947,-0.25454786,0.04882567,0.14953229,-0.18659393,-0.119967386,0.010724023,0.049218044,-0.15289544,0.010757169,-0.16710585,-0.31765494,0.031728186,0.08817386,0.07627731,-0.03093089,0.08726095,-0.09577319,0.02991192,0.28894478,-0.11425098,0.05186101,0.17454349,-0.06297765,-0.14531513,-0.1241659,0.18252164,0.11855102,0.31901732,0.15113452,0.011499539,-0.1282056,-0.042251207,-0.09542007,-0.07803219,0.20388907,-0.127722},{-0.049244694,0.008277978,-0.24960524,-0.26328054,0.14523801,0.1552394,0.075221874,-0.020091834,0.017964812,0.29920313,-0.08158018,0.3337856,0.26412934,-0.06864512,-0.23250403,0.064354405,-0.047014195,-0.16711578,0.0447871,0.05307835,-0.011340059,-0.3087175,0.020894706,0.3374263,0.3780008,0.21384381,-0.078354634,0.035523344,-0.07514682,-0.027104212,-0.09894574,0.00043862552,-0.27490327,0.05577904,-0.08797312,0.23119974,0.060027406,-0.28125438,-0.2391012,-0.2749605,0.19446507,-0.17789501,-0.09273699,0.23888326,0.08660915,-0.11896845,0.20043662,-0.20557988,0.22918233,-0.2389199,-0.04182157,0.24747841,0.14018969,0.23642059,0.074432515,-0.09974505,0.089559786,-0.20986992,0.12915608,0.06686369,-0.26083854,-0.10669296,0.20417291,-0.21563935},{0.2867115,0.009219136,0.3300266,0.24869928,-0.055965412,0.10145314,-0.017819438,-0.067609005,-0.1832039,-0.40746987,0.14897238,0.16106623,0.11680825,-0.03317818,0.083939776,0.086560786,0.31317797,-0.20904478,-0.24566759,-0.14936794,0.14530694,-0.01814525,0.16779299,-0.31816906,-0.32014102,0.29196724,-0.096687056,-0.4411565,-0.0013750737,0.06542752,-0.009202993,0.16257012,0.359593,-0.31301332,0.06992987,0.15881532,-0.06541114,0.26612622,0.21072277,0.02712193,-0.07025126,0.045824695,0.16515048,-0.44500712,-0.33563638,0.19534928,-0.29829293,0.11924903,0.09703432,0.07823628,-0.0448778,-0.20495704,-0.12594682,-0.14553048,0.46161866,-0.3281167,0.09884009,0.21353352,-0.17879222,-0.05275167,-0.08359069,0.062381864,0.052821554,0.2743028},{-0.24822809,-0.08024975,-0.08030895,-0.14760341,-0.013015491,0.074487075,-0.30520716,0.0423176,0.12586863,0.08041567,0.062432967,0.30446485,0.33040568,-0.364336,-0.05420531,0.23009768,-0.15443203,0.1701316,0.14517392,0.11113276,0.26633102,-0.054626547,0.20311491,-0.052705362,0.13213746,0.17022745,-0.23531382,0.17521344,0.19818206,0.097900726,-0.09358643,-0.049876016,-0.0790011,-0.14755774,0.15276496,0.10973767,0.12925747,0.17486218,0.009367855,0.106390364,-0.12307263,-0.26262808,0.14250259,-0.19132803,0.0227804,-0.1334136,-0.16653037,0.13650921,-0.035674375,-0.001538775,-0.015411953,0.32285294,-0.19883035,-0.20240283,-0.2765288,-0.05645248,0.048118338,-0.03846953,-0.06909047,0.07978839,0.21032836,0.24468479,-0.11775604,-0.1662924},{0.005308556,-0.0765932,0.017527467,0.088616304,-0.028640201,0.024632614,0.23163399,-0.1858146,-0.0053379205,0.31004354,-0.08308204,-0.24890219,-0.040416446,-0.0041176365,0.24721727,-0.15081812,-0.10168184,0.11914157,-0.092008635,-0.017387042,0.12912306,0.02810001,-0.18378162,-0.18740459,0.0122967465,-0.043841314,-0.15940657,0.24175723,-0.13252585,0.033326685,-0.001140793,0.0070331013,0.24615197,-0.5651586,0.12815848,-0.2091764,0.12746137,-0.18413395,-0.00981235,0.25764477,-0.23042697,-0.015372427,-0.21642435,-0.12636043,-0.056354653,-0.170612,-0.18358961,0.13089956,0.0006324498,-0.10033534,-0.17679837,-0.09985789,-0.14610697,0.074916616,0.41938084,-0.2635064,-0.029973703,0.56116474,0.08139059,-0.07718429,0.25327134,0.03674017,0.09487583,0.1769382},{-0.009057799,0.031936523,0.05982748,0.110161304,-0.24720417,-0.3108522,0.21967752,0.086753614,-0.26489145,0.18726507,0.0022210702,-0.008769643,0.08423969,-0.13041377,0.08318127,-0.27502698,-0.1153921,-0.14775412,0.13712156,-0.026266892,-0.13845786,-0.023965077,0.068834655,-0.01666525,0.031362202,-0.18534625,0.30946052,-0.07620523,-0.31793132,-0.11960393,0.16725002,-0.15912572,-0.3661924,0.15970328,-0.16205423,-0.051970102,0.14110938,0.21983224,-0.27447203,0.047221538,0.14333779,0.055614203,-0.16449092,0.26160923,0.011067455,0.21459794,-0.1318209,-0.12616149,-0.12099634,0.076035015,-0.13045321,0.12905097,-0.050898273,0.0074904943,0.049840916,0.115897946,0.22095358,-0.30842993,0.28323057,0.063468866,-0.09856625,-0.27008793,-0.16897874,-0.08628154},{-0.10241316,-0.031241436,0.07963051,-0.04816872,-0.24491306,0.05912024,-0.26155862,-0.24832457,-0.029462494,-0.43058407,0.23217681,-0.023161896,0.50305545,0.006898415,-0.11726523,-0.20657183,-0.09764517,0.023890838,0.1482543,-0.037951645,0.23700182,-0.10146799,0.29588166,-0.36374673,0.09655174,-0.0218462,0.21576929,-0.08044969,0.25794923,-0.020684158,0.19014405,-0.0642942,0.30330962,-0.07557652,0.10520146,0.1967988,-0.16709086,0.07380938,0.1708301,0.21232308,-0.12129944,0.08678349,0.14167762,0.048295885,-0.29126024,0.024973381,-0.04719884,-0.30272433,0.12140793,-0.2816775,0.054511428,0.1709406,0.06916218,-0.174251,0.066677354,-0.35808787,0.017830947,0.18896122,0.09898363,0.10016721,0.060996424,0.21032804,0.032798648,-0.28042647},{0.15640089,-0.13203713,-0.23110288,0.1259574,0.04959863,-0.12170603,-0.3032254,-0.071046695,0.2045031,0.05231547,0.007928641,-0.1335142,-0.004721378,0.2465478,0.0035240813,-0.061756317,-0.13620104,-0.16589677,-0.04388161,0.06398958,-0.05467066,0.063512854,0.04778974,-0.22235323,0.15355259,-0.3494416,-0.091797695,0.28658575,-0.19334286,-0.11499701,0.009803569,-0.32451797,0.01182982,-0.040791452,0.15056068,-0.097695224,-0.112188265,-0.041076418,-0.09245497,-0.0886774,-0.096260935,0.11577377,0.2926802,-0.10884686,0.13651742,0.034122143,0.059044886,-0.04999786,-0.056376677,-0.14925757,-0.10741091,-0.15832765,-0.10966559,-0.10578999,0.092269145,0.05505954,0.0876687,-0.11995804,0.5059246,-0.060108326,0.016980935,0.2984783,-0.24113733,-0.12336009},{-0.22083792,-0.12286259,-0.16178477,0.053145137,-0.12605831,0.23863898,-0.040039975,0.17505173,-0.0032522546,0.2357655,-0.21418408,0.0676608,0.311014,0.0937036,-0.1973093,-0.14714198,-0.10054175,-0.070494995,-0.04537021,0.20096156,0.100679465,0.17115656,0.047073018,0.061839152,0.11336067,0.5447188,0.14938998,-0.16344309,-0.074483894,-0.17336531,-0.17265135,-0.02259308,-0.070190236,0.11608484,-0.059310026,0.038839437,-0.015348875,-0.031912904,0.26544377,0.17022717,0.08984508,-0.07266753,0.0941924,0.21851523,-0.28286302,0.035303902,0.066120304,0.0381756,0.22266638,-0.019178046,-0.06967582,-0.11158415,0.31632864,0.23883434,-0.2873777,0.02677669,-0.044206984,0.34115228,-0.089674875,0.15021785,0.3495026,-0.12575908,-0.23919575,-0.1402438},{-0.19218299,0.19868669,0.0660927,0.096648246,0.31410268,0.032175656,-0.15286532,0.084976144,-0.025261525,0.19161375,-0.081902556,-0.1669732,0.05092602,-0.17825988,0.28718093,0.055856492,0.03210838,0.0015041002,-0.10973533,-0.21202128,0.15176909,0.15864769,0.081887625,-0.0503433,0.027992059,0.18155794,0.17235027,-0.033916537,-0.13040511,0.19412448,0.3387868,-0.050633613,-0.15253185,0.21972725,0.0900554,0.3382122,-0.07904208,-0.22786744,0.14490882,-0.17403275,0.25943938,-0.07919943,-0.077588215,0.48046035,0.1126705,-0.109156296,0.1425146,-0.15536068,-0.080137335,-0.18746325,-0.16463111,0.10970214,-0.012294095,0.17977645,-0.0007544835,0.20589846,0.09190785,0.1713834,0.19054636,0.36913872,-0.15128227,-0.21740381,0.2886324,0.08271285},{0.051657062,0.08248709,0.22042419,0.08821623,0.07332052,0.06461389,0.27153778,-0.23043744,-0.22732423,-0.29360864,-0.1579761,0.19561364,-0.13634491,0.1678398,0.18077359,0.02138029,-0.049050227,0.06711127,-0.29266527,-0.048171997,-0.016960457,0.065505065,0.010957766,-0.15371735,0.032189492,0.1379734,-0.2247943,0.15208395,-0.022926232,-0.049084667,-0.11103745,0.27282843,0.1137541,-0.13583112,-0.08954355,-0.07810284,-0.16156325,-0.07239271,0.111289434,-0.07574604,-0.13259354,0.10796947,-0.119576715,0.13646773,-0.020058407,0.036331605,-0.11546801,-0.053922407,0.118246,0.06432794,-0.14568882,-0.038458794,-0.03416761,-0.11369063,0.19442002,-0.07080814,-0.16128819,0.34501606,0.15887116,-0.020518785,-0.042078216,0.15558721,-0.03516214,-0.06403357},{-0.27203205,-0.37773386,0.09306552,-0.026420532,0.12031134,0.19728312,0.06529125,-0.26806492,-0.08380385,0.062484074,-0.085072376,0.23003246,-0.15062283,-0.18281637,0.10099152,0.08310509,-0.11234747,0.11494071,0.17230561,-0.16836719,-0.13643217,-0.28411588,0.18125585,-0.22640555,0.24213468,0.5745163,0.01876899,0.09788789,0.0374358,-0.13821892,0.23152971,-0.00142542,0.004026014,0.059691142,0.04896992,0.14960077,-0.060121056,-0.101479135,0.19464593,0.060388595,0.0056731347,0.13299094,0.44918352,-0.1303461,-0.123399295,-0.10280567,0.12994419,0.04937652,0.17847034,-0.37684608,0.07185505,0.33668876,-0.20921002,0.2122142,0.5045392,-0.1919258,-0.18139753,0.19132856,-0.015290313,0.10473126,0.07561222,-0.03570602,0.13885948,0.16586064},{-0.061180655,-0.020032726,0.16536668,0.16477023,0.12501913,0.09778999,0.044603743,0.065977246,-0.05446555,-0.1791281,0.052393902,-0.101444826,0.070027694,-0.14703168,-0.07229618,-0.12080971,-0.063673556,-0.19630276,-0.52696073,-0.0039098943,0.14538132,-0.053380873,0.0015361429,0.03547639,0.09572855,-0.12631717,-0.19038178,0.24286066,-0.060092922,-0.20195092,0.07970268,0.22864558,0.28091156,0.09415006,-0.1779172,-0.032305896,0.100986056,0.23589365,0.1414097,0.021224106,-0.03937731,-0.17315051,0.027160468,0.1173286,-0.27639046,0.23977931,-0.080269456,0.046560597,-0.25630298,-0.24315812,-0.10862303,-0.12830663,-0.057714142,0.036249474,0.17407037,0.09477875,0.23166673,0.3155194,-0.05698541,-0.25719646,-0.07663884,-0.011728444,0.036806963,-0.09189321},{0.21984856,0.05689093,-0.097859144,-0.022204867,0.23892772,0.15498981,0.2505805,0.16145363,0.060888324,0.19172862,0.189523,-0.08559654,0.4052867,-0.16154338,0.050721355,-0.071256235,0.020568369,0.15399347,0.4466868,0.23941596,0.047754202,0.21636584,-0.046823725,0.36437854,-0.17742667,-0.22279313,-0.11503765,0.0705672,0.073618345,0.1818047,0.20433041,-0.031527627,0.1236747,-0.077638984,-0.08732007,-0.13724934,0.060061824,0.21046208,-0.20397562,0.032619767,0.040921774,-0.21261786,0.24143004,0.11184584,-0.078643106,0.111048736,-0.055686954,-0.01750658,0.22617927,-0.19014078,0.38016304,-0.1065488,0.1930582,0.2285087,-0.09732771,-0.16564856,-0.10936171,-0.2151606,0.007823564,0.064164996,0.14529914,0.07013468,0.3103413,-0.10102654},{-0.18010485,-0.19603862,-0.27320862,0.12072273,0.2562003,0.3665917,-0.18472363,-0.039584555,-0.1387949,0.10245519,0.06736181,-0.05427625,-0.26307204,-0.1329757,-0.17271945,-0.14630772,-0.3050628,0.1536067,-0.08401473,0.2005626,-0.28996563,-0.23994151,-0.011602282,-0.26110142,0.1248138,-0.0514381,-0.034796536,0.21779115,-0.08033083,0.013213208,-0.020001743,-0.0008224376,-0.3902847,0.302557,0.07867561,0.24575444,-0.09312276,-0.27423507,0.026726624,-0.27949306,0.21471237,-0.18041936,0.049211536,-0.055753723,-0.25509292,0.29285184,0.091851726,-0.15796068,-0.115100056,0.17135221,0.020961702,-0.10483394,0.0009207625,-0.008272783,-0.12956603,-0.013869961,0.1342106,-0.4483606,-0.20442164,-0.19062433,0.06675961,-0.114251174,-0.19824941,0.20273778},{0.0066943592,0.2295267,0.2897372,0.20062995,-0.12912282,-0.1262208,-0.010263545,-0.0104574505,0.06978759,-0.24400164,-0.08307137,0.0645636,-0.17590217,0.31114653,0.08999521,0.04506792,0.30884996,-0.055822026,-0.09494876,-0.40611622,-0.1872719,0.18901013,-0.03236323,-0.12393412,0.04799177,0.09683674,0.3446035,-0.13603733,0.04313537,-0.0907191,0.073835775,0.1853738,0.23689923,-0.28058103,0.15265031,0.1518282,0.3112362,-0.0049527274,0.25889578,-0.03425809,0.14064413,0.11984805,-0.13097115,-0.27757707,0.06544393,0.2454103,0.030983645,0.14185904,-0.22296542,0.05282871,-0.08466407,-0.015939735,-0.04884177,-0.13099307,0.081517264,-0.30373672,-0.17192449,0.017422872,-0.28269935,0.065048285,0.15354908,-0.18772231,0.028025167,0.12830098},{-0.033298343,-0.16882268,-0.20613557,0.0880553,-0.081793174,-0.17374712,0.051120028,0.019613728,0.1068521,0.15263501,-0.064529486,0.1920108,0.0283025,-0.25624427,-0.23313364,-0.015626704,-0.15312415,0.010143104,-0.09981854,-0.18357272,0.1415964,0.21897854,0.04056833,-0.0044258917,-0.1370708,0.23657864,0.10347321,-0.4084185,-0.046877377,-0.24637966,0.053090304,0.016754197,0.51777077,-0.028189512,0.03783132,-0.13864136,-0.31076777,-0.11759652,-0.034671027,0.17882042,-0.07946286,-0.15929222,-0.019719876,-0.018822592,0.21955146,-0.12403312,-0.104930475,-0.1066995,-0.15732215,0.0102934055,-0.11457291,-0.12114978,-0.09802518,0.17482585,0.008390885,-0.015886828,0.0041372986,0.25508267,-0.28918576,0.07042258,0.088264726,0.4212194,-0.55952525,-0.0013949468},{0.14711596,-0.003923887,0.29956117,0.22141539,-0.07512954,0.030381832,-0.10442353,-0.21051377,-0.12771906,-0.031689346,0.0946142,-0.20099305,0.096785754,-0.0866188,-0.25411955,-0.269243,-0.048024647,0.08606921,-0.03741598,-0.17365423,-0.19655769,-0.1369191,-0.17893039,0.25270486,0.11049715,0.084578335,-0.14391047,0.01074943,-0.121159755,-0.10256082,0.2983263,-0.10477432,0.15235105,-0.030897755,-0.079719186,0.09703676,0.20204282,-0.021724708,-0.0649373,-0.34385568,-0.020684455,0.01324985,0.36072367,-0.010432146,-0.28501147,0.020556428,0.076061435,0.17036311,-0.18895982,0.21573818,0.15743181,-0.21319723,-0.1403594,-0.16051398,-0.267088,-0.4227577,0.022555314,-0.19990888,0.12347198,-0.010407179,0.28016537,0.01679507,-0.18090902,0.10111956},{0.41917977,0.29259855,0.3251456,-0.14179522,-0.05432454,0.04674793,-0.16385847,-0.2167965,0.44530413,-0.3181329,0.075478666,-0.013492112,0.100080945,0.02288337,-0.12825742,0.055131722,0.08320341,-0.18984309,-0.027751151,0.10300409,0.19632885,0.12159798,0.016030451,0.097386025,0.23397192,0.43226725,0.1505528,0.2589431,-0.2311579,0.073376454,0.4972353,0.331477,-0.19913583,0.0042311503,0.02778435,-0.051392555,0.07554972,0.12679984,0.13991524,0.24470043,0.13613337,-0.05191255,-0.14494695,0.06546898,-0.034874935,0.37450203,-0.028483223,0.048269402,-0.29946244,0.033572294,0.32811522,-0.124672785,-0.11643306,-0.15851484,0.035716254,-0.32419097,0.26991382,-0.23962814,-0.024719408,0.32923698,0.26711297,0.12809032,-0.17374055,0.20862818},{-0.19970004,0.05681371,0.2780157,0.1517966,0.074202105,-0.08820769,-0.07175725,-0.040809743,-0.053338397,-0.07660401,-0.07565892,0.071061395,-0.21141793,-0.14196794,0.07830692,0.19979227,0.034077577,-0.031124666,-0.13305296,-0.09253025,0.34478375,-0.28685376,-0.19685766,-0.095381506,-0.09970041,0.18519957,0.17046534,-0.20703122,-0.14874369,-0.19631283,0.08619049,0.052388463,-0.011525255,-0.30333793,0.17605796,0.21224093,0.23241787,0.05883487,0.060731202,-0.29966888,0.11674022,0.14436914,-0.20562129,0.10203409,0.13862672,-0.18132903,0.35026863,-0.08954369,-0.10690121,-0.12767418,0.24956629,0.12406435,0.36915842,0.028764443,0.23321876,0.20397708,0.043770105,0.2972248,-0.1813513,0.052912973,0.118937135,-0.124841146,-0.1970841,0.020261737},{0.12067915,0.22070518,-0.07705201,-0.17710193,-0.23503368,0.19035795,0.046936333,-0.026948087,-0.10756558,-0.121263385,-0.20988895,-0.18447618,-0.21103506,0.09642363,-0.10227595,0.0038057484,0.076886944,-0.084110506,-0.29962096,-0.13305655,-0.15232468,0.0638642,0.106651224,-0.4412717,0.32777077,-0.018445844,-0.03156547,0.18779638,0.036957905,-0.25931048,0.07490764,0.19573644,0.09223749,-0.15453836,-0.046449795,-0.06854684,0.1617469,0.115014456,0.015540776,0.112648584,-0.18210599,0.125627,-0.15191354,-0.03799344,-0.27956763,0.099639244,0.17538999,-0.26424786,0.15467028,-0.06651666,0.026197221,0.112768084,-0.28378087,-0.034295008,0.3478788,-0.29482052,0.22788301,0.2807529,-0.103280224,0.2543572,-0.1274899,-0.119102255,-0.045539245,0.08908339},{0.033705037,-0.0033622265,0.09577848,0.046657525,-0.12844898,0.09316354,-0.3374481,-0.168803,0.16789654,0.074386954,0.17989986,0.27563202,0.049151637,-0.015286339,0.21251513,0.052409064,-0.04909385,0.07748525,-0.06301897,-0.1416463,-0.016396869,0.15822762,0.040556993,-0.35608214,0.1004686,0.058778267,0.25881544,0.19830646,-0.16235518,-0.013395118,0.08184286,0.3563683,0.3304482,-0.0065301764,-0.31589863,-0.059989166,-0.03402741,0.10461336,0.13430285,-0.16629301,0.12978014,0.19659556,-0.4905623,0.26230446,-0.106689975,-0.21510278,0.037666686,-0.49307102,-0.35130242,-0.26704964,0.13840652,0.25979787,-0.036898863,0.20382501,0.25527823,0.18906201,-0.17464095,0.33906105,0.06329492,0.026908308,0.14249934,0.042317603,-0.060489208,0.043212444},{0.09919451,-0.090559654,0.09473065,0.25588962,-0.14566667,0.05386021,-0.34430707,-0.2585333,0.028373666,-0.013373438,0.010449815,0.2193464,0.15836498,-0.029179255,0.0013251121,0.066130154,0.18812764,-0.026547989,-0.06513489,0.13042699,-0.19447486,-0.012408732,-0.21563256,0.12988435,-0.1769843,0.20006034,-0.12818924,0.044780657,-0.083389096,-0.09116746,0.052463282,-0.05400014,-0.07641907,-0.2634741,-0.034159876,-0.13027489,-0.058433056,-0.18485199,0.06817646,0.108117096,0.25636107,-0.023346893,-0.07939825,0.16607752,-0.078685924,0.008139466,-0.27704537,-0.07301948,0.17239717,-0.12939453,-0.21966667,0.08663256,0.0860731,0.088636,-0.35340592,0.27056557,-0.2779917,-0.07384747,-0.10556325,-0.11462446,0.19808906,-0.03136678,-0.19653538,-0.12837283},{-0.16236696,-0.46343768,0.018468376,-0.4198391,-0.086965,0.027346143,-0.08081914,0.037547447,0.17131186,-0.28770506,-0.191952,0.15068574,-0.26617473,-0.03654475,-0.21062656,-0.15004537,0.047447614,0.1752618,-0.11683823,-0.102857396,0.144178,0.1684382,-0.14722353,-0.12571116,0.026807701,0.028259674,0.025665862,-0.22378936,0.077759914,-0.24686702,-0.009607103,-0.13378412,-0.029742183,-0.015530126,-0.15396106,-0.054737847,0.11895498,0.26314345,-0.095119566,-0.057346307,-0.075366884,-0.05866714,0.39916655,0.6108005,0.3691184,-0.18610764,-0.21036729,0.13863808,0.06998702,-0.13949463,0.11991242,0.024965337,-0.32215342,-0.04526823,-0.12885587,0.46191353,0.06958921,-0.2470283,-0.26357737,-0.08652121,0.134166,0.0576998,0.097573854,-0.4568439},{-0.19432181,-0.06422458,0.22116034,-0.101934746,-0.08542002,0.09527517,0.14548086,0.006147776,-0.119241215,-0.19584954,-0.009049162,-0.062052824,0.13651134,0.21817009,-0.039855894,-0.10590495,-0.1676474,-0.2188541,-0.059067495,-0.32175124,0.23566791,0.19567224,-0.027257783,0.122475214,0.015059767,-0.06651406,-0.21796887,0.26300606,0.24183258,-0.093024686,-0.17937528,0.035464548,-0.11695032,-0.084907606,-0.24199754,-0.06107363,-0.11515934,0.29147115,0.044200435,-0.21733084,0.00042083763,-0.07734595,0.021870155,-0.16334018,-0.23438653,0.27533975,-0.022414366,-0.16811994,0.15997337,0.2229733,0.13854656,-0.13552603,-0.16084057,-0.22867683,0.24061906,-0.2624217,-0.022537787,-0.14914998,-0.49544877,0.05071252,-0.046100676,0.15880822,-0.22919369,-0.08327717},{-0.3020633,-0.1074549,0.17370832,0.5856253,0.43674758,-0.60390013,0.34605917,0.0856791,-0.77521914,0.04702972,-0.28849214,-0.2335131,-0.1534623,-0.24905139,-0.28059417,-0.13324907,0.14311138,0.32333758,-0.09767441,0.38623163,-0.06634693,-0.37819225,0.28011164,-0.14953278,-0.032033734,-0.06975443,0.4151684,-0.5507339,0.22280364,0.16434826,-0.6610153,-0.17983672,0.3691303,-0.060074557,0.2318646,0.78287435,0.14302346,-0.19576897,-0.06882567,0.018364882,-0.523619,0.12771308,0.2825948,0.12885451,-0.020655805,-0.22570515,0.063692115,0.31484416,0.2794134,-0.24133676,0.36615908,-0.19359086,0.16195615,0.21544303,0.23551498,0.049782816,-0.024664897,-0.066061854,0.5475188,-0.3872786,0.41538286,0.2325874,-0.08792199,-0.35081652},{-0.14867282,0.13121231,-0.20461103,-0.09261566,0.088886976,0.02996712,0.08186542,0.33195212,-0.23479952,-0.053512074,0.013662251,0.046719234,-0.03720154,0.38459027,0.11642599,0.10893263,0.2722165,0.18949783,-0.44438994,-0.02567954,0.026640218,-0.05447783,0.005314849,-0.009034083,-0.04543499,0.20833243,0.068633154,-0.38315555,-0.09104908,0.0042635454,0.16527845,0.06909007,-0.1545066,0.23162472,0.2511929,-0.24392872,-0.2365401,-0.23381385,-0.11799473,0.25296414,-0.0057717655,-0.02614077,-0.23959245,-0.17860599,0.015170704,0.2802808,-0.1612079,-0.053949222,-0.26565513,0.24838966,-0.14248943,0.091965035,0.045377385,0.032443672,-0.10603288,0.15235548,-0.005743061,0.17834263,-0.22797509,-0.26528567,-0.36424035,0.09151383,-0.418012,-0.058954123},{-0.2619284,-0.0077841273,0.01713999,-0.3628834,-0.0006167677,0.09688934,0.062120073,-0.09527341,-0.24122633,0.25912133,0.10804697,-0.15678503,0.03831839,-0.11547355,-0.16440843,-0.23937052,0.057049863,0.025876388,-0.12908788,0.15054063,0.24165353,-0.13942328,0.14109175,0.23114322,0.026904989,-0.012255195,0.07199027,-0.096744806,-0.074230306,-0.04350777,-0.02713714,-0.10656238,-0.3525717,-0.033223044,-0.069586135,0.2331081,-0.17268848,0.16247533,-0.049425717,0.10486329,-0.12751868,-0.14740118,0.04680174,-0.1674644,-0.072189994,0.03949277,-0.02146761,0.17954427,0.14596117,0.04092607,0.09243441,-0.09675694,-0.0276844,-0.09355245,-0.32506633,0.1590831,-0.017641533,0.029264718,-0.008146434,-0.30363065,0.09163825,0.09530757,-0.09852827,0.179342},{-0.20131686,-0.005251789,-0.0049023125,-0.09297338,-0.034877863,0.3188763,-0.27327213,0.3202609,-0.22549854,0.40722534,0.05749391,-0.046362314,-0.19437961,-0.21476324,-0.16688015,-0.05999804,0.40582973,-0.123374104,0.14556244,-0.12847637,-0.2650459,0.1439836,0.059725445,0.52720964,-0.16404781,-0.34445897,-0.012157492,0.12112268,-0.28211746,-0.26201707,0.07370253,-0.12360967,-0.27379623,0.013989871,0.061969347,-0.23424627,-0.32244092,-0.09821695,0.15920322,-0.22038405,-0.0028162284,0.08082446,0.17086661,0.3037624,0.122215234,0.15415895,-0.09329718,-0.11242948,-0.11621473,-0.04589815,-0.105940126,-0.14516065,-0.1645187,0.13128053,-0.34268424,0.28252682,0.017285937,0.04565576,-0.30290437,-0.005609701,-0.18309145,-0.19253053,0.020789143,-0.06529211},{-0.115858406,0.060436785,0.010589017,-0.17744446,-0.30752486,0.24723198,0.3627979,-0.17154892,-0.27641383,0.08420128,-0.34104073,0.19408213,-0.06514576,0.16138959,0.20778607,-0.013260058,-0.11354486,-0.05696042,-0.017703958,0.02393128,0.0028159476,-0.09333487,0.19077192,-0.14409576,0.20321469,-0.35195458,-0.20526122,0.13461569,-0.27918863,-0.31361586,-0.38497317,-0.16737843,-0.2202669,-0.03491436,0.025967743,0.0472426,0.14958756,-0.18409179,-0.1546727,-0.3669214,0.19146891,-0.1464118,-0.06533897,-0.014878674,-0.067030564,0.093042664,0.17425881,0.13854705,-0.28853798,0.16617228,-0.24637327,0.09249813,0.31183448,0.49993902,-0.112517156,0.1705693,-0.082350425,-0.06315714,-0.018535463,-0.085483134,-0.14269055,-0.09350723,-0.19518685,0.1350282},{-0.093314946,-0.069753215,-0.3763436,0.13148619,0.2779982,0.0047650547,-0.035462666,-0.17576759,-0.37498564,0.13409683,-0.06753338,-0.20871182,-0.05258619,0.23025346,-0.30364335,0.11044214,0.20226769,-0.255102,0.5098677,0.29212117,-0.10606603,-0.29604566,0.32599542,0.44662684,-0.08210005,0.08464171,-0.5354004,0.21868473,0.19109915,-0.07795391,-0.21276076,-0.11613665,0.07548861,-0.08054687,-0.1129592,0.051150154,-0.09994672,-0.085199505,-0.018428525,-0.34917405,-0.1844671,-0.12663266,0.2989823,-0.21060058,0.06305152,-0.19573309,0.207383,0.09653101,0.21506912,-0.04254824,-0.28116977,0.18107954,0.07723226,-0.20352556,-0.35023233,-0.25984666,0.14858437,0.11009038,0.10065526,-0.19235387,0.24530315,0.06577885,0.04382759,0.4740152},{0.31787524,0.020567423,-0.06039902,-0.0062132757,-0.009258981,-0.27863538,-0.07077962,-0.110544264,0.23014243,0.29716322,-0.04207617,-0.26629585,0.10806747,0.1939307,0.23109142,-0.032657996,-0.034723584,0.2550087,0.22282347,0.29750243,0.016783068,-0.22020681,0.11479223,0.19364695,0.11388792,-0.2972107,0.24799219,0.08070789,-0.010270666,0.14750873,0.07290122,-0.13556458,-0.14053701,0.28320554,-0.0070940927,0.110035166,-0.11191671,-0.02548226,-0.06443323,0.15097679,-0.15247181,0.06042436,-0.13465692,0.2160465,0.09833073,-0.0023274468,0.0234831,0.005471682,-0.1637402,-0.23728943,0.1024142,-0.25198522,-0.13044395,0.11488136,-0.17634565,0.32418197,-0.03486568,-0.2823082,0.07437134,-0.20508087,-0.15663706,-0.1687325,0.24060905,0.09065242},{-0.054634012,-0.11331859,-0.1372493,0.09293562,-0.25002137,-0.079023644,-0.1862577,0.24087244,-0.06531342,0.17967871,-0.17332728,0.17698754,0.112291224,-0.1794714,0.12140121,0.11673799,0.055143666,-0.12784547,-0.015292464,0.15035759,0.21771537,0.035595026,0.013576039,0.17237186,-0.19785726,0.118088655,0.03980175,-0.15553814,0.17009999,-0.05253558,-0.2330432,-0.025147045,0.11623898,-0.13259247,0.10602848,-0.27698952,0.15923028,-0.1903461,-0.04039122,0.1913107,0.079110846,0.06708871,-0.06166695,-0.31567395,-0.044878997,0.12910128,0.112614654,-0.09116382,0.028197384,-0.14692506,0.26217982,0.13301098,-0.08950871,0.014967694,0.21914262,-0.035008844,-0.052450202,-0.11273217,-0.19772074,0.26648837,0.17332204,0.07781901,-0.15611301,-0.23180881}};
static const float layer_2_weight[64][4] = {{0.31142223,0.12763265,0.026800836,0.045841344},{0.17313299,0.07637062,0.043934923,0.0853212},{0.25844172,0.09072726,0.16747195,0.05312628},{0.22250825,-0.022715949,0.1931494,0.11677164},{0.040621363,-0.11946471,0.1090389,-0.046393543},{-0.087902114,0.12638998,0.19628243,-0.07929639},{-0.06543688,-0.06260628,0.0687287,0.056386344},{-0.14935121,-0.14667696,-0.1330839,0.030505525},{0.16926293,0.255815,-0.036317207,-0.17992054},{-0.14811088,0.17988938,-0.17636485,0.021930775},{0.20941906,-0.15435158,-0.115338825,-0.12467022},{-0.3990926,-0.026719984,0.28919324,0.025591081},{0.028192213,0.05662158,0.07603115,-0.12461867},{0.07138469,0.1320675,0.015406287,0.17223798},{-0.12230377,-0.023974055,-0.08360285,-0.08497898},{-0.10292071,-0.17966576,0.1162951,-0.21036834},{0.30984893,-0.1776943,0.05970373,-0.20713554},{0.009500605,-0.0020985582,0.023639161,-0.025993023},{0.12885906,0.0024689808,-0.12384026,-0.17045778},{-0.15408196,-0.29469144,0.16789538,0.073050275},{-0.2189179,-0.08330676,-0.083122715,0.19174697},{-0.0014100119,0.11334029,-0.1933764,-0.18233606},{-0.0022891469,-0.053265274,0.11635384,0.11729822},{0.015787212,-0.008272429,0.32071754,-0.048923053},{-0.14989498,0.046766892,0.014171565,-0.001287249},{-0.18588279,-0.17942536,0.2113254,-0.0817335},{-0.037600182,-0.09543121,-0.20182167,0.1270524},{-0.12375306,0.09672499,-0.0030424562,-0.048909068},{0.06352573,-0.21150032,-0.23721172,-0.13918376},{0.24755116,-0.02019586,-0.03553073,0.25920922},{0.22964036,0.30382925,-0.17077884,-0.2852615},{-0.16161108,0.12330156,-0.044364456,-0.20905039},{0.21388435,0.16249496,0.03412838,0.20971254},{-0.09231204,-0.07124833,0.33800393,-0.3096908},{0.06016619,0.025469908,0.007048879,0.03040327},{-0.17540321,-0.2429185,-0.020223785,0.07406269},{-0.22280641,0.08593786,-0.25585902,0.0913314},{0.38274652,0.029525477,0.1476843,0.18316877},{0.11800904,0.16101684,-0.28261286,-0.2108225},{0.29313484,-0.14340629,-0.11103515,-0.10620291},{-0.09155026,0.17551795,0.061973926,-0.09015116},{0.061058544,-0.1299929,0.18905745,0.11205022},{-0.008221223,-0.030897714,0.019027535,-0.016117811},{-0.02199655,0.13770543,-0.010563494,-0.10571656},{0.0014451797,0.034453567,-0.116307326,0.027879244},{0.077695996,0.0112681165,0.05210611,-0.04603789},{-0.15645522,0.032422803,0.031077128,0.058448784},{0.093780614,-0.016893,-0.02930797,0.0616996},{0.07957258,-0.13158207,-0.056315742,-0.14237876},{0.09540017,0.16304192,0.19708775,0.21571521},{0.12699187,0.21119784,-0.23525701,0.107085325},{-0.1712461,-0.06938343,0.004113205,-0.11084246},{-0.118754156,0.053936947,0.03965716,0.11301736},{-0.002367496,0.3292836,0.20839569,0.25874427},{0.2723739,0.26489478,0.10024867,0.08433359},{-0.30859613,0.1550857,0.2236338,0.13357557},{0.063140936,-0.00271135,-0.09848986,0.091438785},{-0.065001905,0.07207185,0.13932538,0.04610337},{-0.09374481,-0.28117388,-0.2208437,0.1376365},{-0.044146057,0.006335958,-0.05116414,-0.17281383},{-0.048518326,-0.17619969,-0.09183094,0.07871052},{0.17632794,-0.22646926,-0.087043196,0.020425947},{0.054390684,-0.20396677,-0.2485814,0.1594498},{0.07298045,0.026640687,0.16663541,0.0014130287}};
static const float layer_0_bias[64] = {0.16059868,-0.22359718,0.060584407,0.12996726,-0.12261768,-0.04159507,-0.07320923,-0.010963362,0.14744094,0.115930445,-0.109207794,-0.0104825,0.12676744,0.25702995,-0.05070714,0.10104504,0.005242157,0.11377969,-0.24432467,-0.28418052,0.19333175,0.12415958,0.08196982,-0.11401659,-0.120243475,0.18112679,0.011316903,0.06117045,0.15979704,-0.061744973,-0.1388707,-0.2191994,0.17013961,0.35530892,0.110061854,0.086440034,-0.24156684,-0.051316142,-0.025830485,0.15495522,-0.04730967,0.4120405,0.044640977,0.14221025,-0.35608616,0.16481858,-0.03054724,0.023365254,-0.12576652,0.02103013,0.38965383,-0.04324037,0.49425486,0.028280884,-0.049303576,-0.025385153,-0.05895715,-0.10465706,-0.11257131,-0.039895866,0.19264403,0.17836766,0.016675822,0.0745876};
static const float layer_1_bias[64] = {-0.024213592,0.11718344,0.08509883,0.13509062,0.09070306,-0.0977279,-0.01836321,-0.095482066,-0.3254511,-0.32592842,-0.07406686,0.1399421,0.04304775,0.11644367,0.037987273,-0.05562548,-0.10809507,-0.004671767,-0.2132461,0.043386035,-0.07771699,-0.07074354,0.098741636,-0.03903744,0.16787055,0.08450436,0.06341847,0.17662394,-0.042846594,-0.18502161,-0.09334488,0.21023022,-0.0609549,-0.14138664,-0.010986188,-0.019584311,0.20047802,-0.07907064,0.17486227,-0.15753484,0.08382159,-0.032287255,-0.09836695,-0.1304184,0.06715926,-0.14972918,0.0607324,0.0078129815,0.021843033,0.0002711352,0.16764835,-0.044012792,0.039504077,0.07891645,0.20715149,0.044056017,0.047059882,0.20875259,-0.1420638,0.050049916,-0.0063474835,0.102406844,-0.12011938,0.19082332};
static const float layer_2_bias[4] = {-0.060549766,0.04120111,0.014113685,0.030352365};

	void networkEvaluate(struct control_t_n *control_n, const float *state_array) {
	
		for (int i = 0; i < structure[0][1]; i++) {
			output_0[i] = 0;
			for (int j = 0; j < structure[0][0]; j++) {
				output_0[i] += state_array[j] * layer_0_weight[j][i];
			}
			output_0[i] += layer_0_bias[i];
			output_0[i] = tanhf(output_0[i]);
		}
	
		for (int i = 0; i < structure[1][1]; i++) {
			output_1[i] = 0;
			for (int j = 0; j < structure[1][0]; j++) {
				output_1[i] += output_0[j] * layer_1_weight[j][i];
			}
			output_1[i] += layer_1_bias[i];
			output_1[i] = tanhf(output_1[i]);
		}
		
		for (int i = 0; i < structure[2][1]; i++) {
			output_2[i] = 0;
			for (int j = 0; j < structure[2][0]; j++) {
				output_2[i] += output_1[j] * layer_2_weight[j][i];
			}
			output_2[i] += layer_2_bias[i];
		}
		
		control_n->thrust_0 = output_2[0];
		control_n->thrust_1 = output_2[1];
		control_n->thrust_2 = output_2[2];
		control_n->thrust_3 = output_2[3];	
	
	}
	